{"layers":[{"out_depth":1,"out_sx":24,"out_sy":24,"layer_type":"input"},{"sx":5,"sy":5,"stride":1,"in_depth":1,"out_depth":8,"out_sx":24,"out_sy":24,"layer_type":"conv","l1_decay_mul":0,"l2_decay_mul":1,"pad":2,"filters":[{"sx":5,"sy":5,"depth":1,"w":{"0":-0.027101294987370194,"1":-0.4027475221517972,"2":-0.1821170896199588,"3":-0.3360900592243569,"4":-0.3839947301581116,"5":0.16328212092971056,"6":-0.351211071909386,"7":-0.46231108645578195,"8":-0.3644925574260547,"9":-0.21315734200272238,"10":0.21521523412775515,"11":-0.309391159850725,"12":-0.15171257538805102,"13":-0.06213515914576396,"14":-0.21773445299844826,"15":0.05078610099013167,"16":0.351742220105428,"17":-0.12812120623289605,"18":0.14046700581084184,"19":0.1345072786999859,"20":0.05821494161693923,"21":0.498918123176018,"22":0.29485273366339015,"23":0.08800394569968074,"24":0.6310054087084809}},{"sx":5,"sy":5,"depth":1,"w":{"0":0.040907529955667966,"1":0.3029923016582361,"2":0.16484498571046302,"3":0.30961304994947414,"4":0.417960517609331,"5":0.07790204969462843,"6":0.585351739605196,"7":0.5622329886242906,"8":0.3290224520008537,"9":0.53915409391734,"10":0.2704732069459553,"11":-0.14155241707848187,"12":0.16635563698289094,"13":-0.16837330655056926,"14":0.03576761387466119,"15":-0.5134776238760256,"16":-0.49356601608186185,"17":0.03603534481319657,"18":-0.09778028708604913,"19":0.002082607244396794,"20":-0.500740312520057,"21":-0.7952036726570397,"22":-0.7111335026100792,"23":-0.5441275577150594,"24":-0.3593743852023982}},{"sx":5,"sy":5,"depth":1,"w":{"0":0.11098800504734153,"1":0.013034520152394034,"2":-0.09339539260218113,"3":-0.5643922655161299,"4":-0.4727787807220579,"5":0.0988530490067807,"6":0.24994051435546247,"7":0.1969907510812718,"8":-0.4362592568219192,"9":-0.9668683022655447,"10":0.076412508217759,"11":-0.012416246582908047,"12":0.5093444454863025,"13":0.4817905516114522,"14":0.06385775198531467,"15":0.1796665606455415,"16":0.09657039917096848,"17":0.6868122446975272,"18":0.43030275160780734,"19":0.28998977062190706,"20":-0.12299212555987382,"21":-0.4808525791108273,"22":-0.4068217783084859,"23":-0.07697792461595432,"24":0.04882809106898915}},{"sx":5,"sy":5,"depth":1,"w":{"0":-0.055986335168361046,"1":-0.3707434082549761,"2":-0.1923378621865981,"3":0.17228676094959067,"4":-0.4075209549829907,"5":0.31966772355419054,"6":0.08177930257941476,"7":0.11699264539102872,"8":-0.6167756759600755,"9":0.11204958179431158,"10":-0.06363310794325128,"11":-0.13154734165456974,"12":0.2537153477795343,"13":0.448412682331598,"14":-0.131299050474866,"15":-0.6163943235136662,"16":-0.3137487136754292,"17":-0.01954613233632497,"18":0.5425392600300262,"19":-0.5794211344681692,"20":-0.08280326520158396,"21":0.4475784764904448,"22":0.2784917469846209,"23":0.23869434152902286,"24":0.2405126192325649}},{"sx":5,"sy":5,"depth":1,"w":{"0":0.22153870411435003,"1":0.3381263643267543,"2":0.5027134036368904,"3":0.17019009586063147,"4":-0.33144743051151115,"5":0.44342738279744404,"6":0.18383546883873925,"7":0.2772357480392696,"8":-0.5010623747185925,"9":-0.23200180773764667,"10":0.19952153269838385,"11":-0.3754295545074686,"12":-0.8007683358166773,"13":-0.3837446760612963,"14":-0.411252453066376,"15":-0.5996052844815885,"16":-0.9126389287786857,"17":-0.3645576308605259,"18":0.02560835804517,"19":0.03460295511853012,"20":-0.5584929602586812,"21":0.03360506409950498,"22":0.10358539163501022,"23":0.36775201097076304,"24":0.2739093314379001}},{"sx":5,"sy":5,"depth":1,"w":{"0":0.2539045544765637,"1":0.3684333402541848,"2":0.05297604165286709,"3":-0.30598072922020814,"4":-0.4563646219867496,"5":-0.050058033142155754,"6":-0.0609919663415831,"7":0.06723178577388243,"8":0.27668075276172216,"9":-0.11388794591294014,"10":-0.23033892243697673,"11":0.1086436733024277,"12":-0.1614701995989928,"13":0.21987787375830523,"14":0.29806212863202053,"15":0.011814558521918966,"16":-0.05987388012570441,"17":-0.4256404285618984,"18":-0.1539353601279286,"19":0.3073976493577011,"20":-0.06773754693776741,"21":0.18460015778291605,"22":0.10854793574517803,"23":0.2551948421508901,"24":0.35780298555488577}},{"sx":5,"sy":5,"depth":1,"w":{"0":0.03913493387880164,"1":0.09054809088394108,"2":0.13556169443704083,"3":0.27081190462899324,"4":0.20485782662955032,"5":-0.48975139408648705,"6":-0.19914371201921033,"7":-0.13824849231777495,"8":0.315970179817451,"9":0.3857893590087104,"10":-0.09402861084770177,"11":0.06328738788053485,"12":-0.003966636688898571,"13":0.27287848576818846,"14":0.10594238985605285,"15":-0.6955091403353337,"16":-0.1656619128112106,"17":0.03628477856949612,"18":0.11565545847499142,"19":0.584658550048875,"20":-0.17549209486731815,"21":-0.10372772678724691,"22":0.1852418565832523,"23":0.034477007494414624,"24":0.12554628792078734}},{"sx":5,"sy":5,"depth":1,"w":{"0":0.415139816894853,"1":0.4701696721811333,"2":0.17037755969380183,"3":-0.43508574918083376,"4":-0.5173337742057704,"5":0.29138472685029493,"6":0.23076154788659708,"7":-0.260847705612492,"8":-0.23369319122724616,"9":-0.3822386267372513,"10":0.3655187915080088,"11":0.3871849506999763,"12":-0.17057197246237113,"13":-0.3114285045803391,"14":-0.5351108692459093,"15":0.2623776425846327,"16":0.15268859417434003,"17":-0.2077583423996298,"18":-0.0676104093848741,"19":-0.4128728155489257,"20":-0.02643058571633246,"21":0.0007301610947993385,"22":-0.5359966583314554,"23":-0.3890153777784339,"24":-0.13119658042640886}}],"biases":{"sx":1,"sy":1,"depth":8,"w":{"0":-0.022115705242236085,"1":0.16792679017970064,"2":-0.00991566995839798,"3":-0.01990699618109632,"4":0.0684211042421015,"5":-0.23534967948794044,"6":-0.1422662257404778,"7":0.10030504137261001}}},{"out_depth":8,"out_sx":24,"out_sy":24,"layer_type":"relu"},{"sx":2,"sy":2,"stride":2,"in_depth":8,"out_depth":8,"out_sx":12,"out_sy":12,"layer_type":"pool","pad":0},{"sx":5,"sy":5,"stride":1,"in_depth":8,"out_depth":16,"out_sx":12,"out_sy":12,"layer_type":"conv","l1_decay_mul":0,"l2_decay_mul":1,"pad":2,"filters":[{"sx":5,"sy":5,"depth":8,"w":{"0":-0.09514169436877423,"1":-0.05409717546990291,"2":0.13176530266110226,"3":0.166193963243812,"4":-0.21856899276424044,"5":0.19405673584903638,"6":0.16305613920774575,"7":-0.178515865475347,"8":-0.055523356186007046,"9":0.12327133345253492,"10":0.013637383903694523,"11":0.07895839550341446,"12":-0.22812743591009824,"13":0.07818756542462028,"14":0.20742563824226257,"15":-0.08368010724579458,"16":-0.21345316598325323,"17":0.1774186863490077,"18":-0.22952367633324222,"19":0.02396009839799011,"20":-0.21372705945274167,"21":0.01503334059320958,"22":-0.05349137301048459,"23":-0.18324861960086591,"24":-0.21202714763056008,"25":-0.0674814164624682,"26":0.1347913748800494,"27":-0.05779738187565162,"28":-0.06613609680741354,"29":-0.1137838877503266,"30":-0.2103631046628862,"31":-0.2139056837261881,"32":0.029862974621228614,"33":-0.24616870002202712,"34":0.1144672570310763,"35":0.03179288940922645,"36":0.020890095169576104,"37":0.18032566773903883,"38":-0.13876122706341015,"39":-0.33834329182752676,"40":0.05133934596131164,"41":0.054976959977639656,"42":0.04610966585970639,"43":0.14478960500168117,"44":-0.12284863741269061,"45":0.13120570966397055,"46":0.15875371172543556,"47":0.06613701947293889,"48":0.1296582855587908,"49":0.04853398000118411,"50":0.07283472648254802,"51":0.031344089076212764,"52":-0.3018735634676667,"53":0.23222098685673043,"54":0.19835960868281682,"55":-0.11041614538911765,"56":0.10020512129868897,"57":0.20467875418253625,"58":0.3290392833069629,"59":0.07644087308129002,"60":-0.1956975106694669,"61":0.2758878951468875,"62":-0.033939639838955864,"63":-0.18330455104621854,"64":0.18503794357933326,"65":0.1551338152522903,"66":0.050936360756812064,"67":0.11639121347745722,"68":-0.035358052380560445,"69":0.10377637505377721,"70":-0.14017497486019848,"71":-0.4651647381112936,"72":0.16368735539888757,"73":0.12015143106303232,"74":0.0629250111305641,"75":0.2396309851078214,"76":-0.01909859140423475,"77":0.03793897425738075,"78":0.03509449489958107,"79":-0.15699842816650753,"80":-0.030375821510681203,"81":-0.017586401269038893,"82":0.020658667116118305,"83":-0.15505164456727202,"84":-0.03043290181257832,"85":0.010968055500215627,"86":0.22908763379945354,"87":0.20982474638194443,"88":-0.31264055465624646,"89":0.1583276399520879,"90":0.4252434129484547,"91":-0.07445048975401283,"92":-0.16688793159763868,"93":-0.029591260261550314,"94":0.0681378711467461,"95":0.043546224111760415,"96":0.03328664814009969,"97":0.16938979544004504,"98":0.4118041537815116,"99":-0.12979757250131327,"100":-0.30989851099137106,"101":0.13570524765200168,"102":0.16412507616140087,"103":-0.24469191398697174,"104":-0.0643754550006251,"105":0.1554868035239187,"106":0.21680740409962218,"107":0.04059709939996387,"108":-0.09786501596923225,"109":0.14103677686658708,"110":0.14117775168248947,"111":-0.38176134571026776,"112":-0.12786663311303745,"113":0.27122745740383924,"114":-0.30284308404755333,"115":0.10039003744031062,"116":0.19841482133031765,"117":-0.05923885582933346,"118":0.11967867641867043,"119":-0.001084225455812028,"120":-0.22344818464030763,"121":-0.10415990488757207,"122":-0.05497497980836228,"123":-0.14229136884401833,"124":0.13868386432807908,"125":-0.11300107267558779,"126":-0.10748808288442652,"127":0.13344191711177558,"128":0.024399280026341556,"129":-0.06460261780385963,"130":0.042541218053644705,"131":-0.24081848025019062,"132":-0.029606143134614456,"133":-0.06008518878337687,"134":-0.17683421081193276,"135":0.08522017755451482,"136":-0.013387877686503687,"137":-0.12444200689132044,"138":0.058256297247688674,"139":0.07659745067254575,"140":0.006032762645962353,"141":-0.23287120296199987,"142":-0.13938159057000946,"143":-0.037971426412688934,"144":-0.1045489887943788,"145":-0.08358503772467808,"146":-0.19584540409776266,"147":-0.05354260104469767,"148":-0.06257002778381243,"149":0.015074451775711728,"150":-0.022687273194970943,"151":-0.3153871304759677,"152":-0.16405733215481824,"153":-0.2317100830902337,"154":-0.3098353862755422,"155":-0.0495312854932227,"156":-0.024697578806192087,"157":-0.0791567307834446,"158":-0.26758350517128904,"159":0.028544333749392053,"160":-0.1648709081104752,"161":0.020345555002047804,"162":-0.17793981066774942,"163":-0.16111508347878267,"164":-0.015366321261366047,"165":0.017717587009637874,"166":-0.11272325019044319,"167":0.10801720121530067,"168":-0.04641081289717439,"169":-0.11007656968225031,"170":-0.19088071128782078,"171":-0.11577646028403739,"172":0.017984762481363145,"173":-0.056580477692249664,"174":-0.0374633531078136,"175":0.1205625969345214,"176":-0.05575587771198654,"177":-0.18202753440855474,"178":-0.07057451496032417,"179":-0.11664886841422867,"180":0.07184951032575988,"181":-0.011266339410934271,"182":-0.15998927687014802,"183":0.10713997906028921,"184":-0.2506555473843209,"185":-0.17656952386514282,"186":-0.19606200371531943,"187":0.06074839151801607,"188":-0.15556919565701183,"189":-0.22114268743765,"190":0.03471629244992389,"191":0.0022818788182734483,"192":-0.1987675367348557,"193":-0.2337533367934553,"194":0.012632583138042388,"195":-0.07417678340839007,"196":0.04715972497119908,"197":-0.17302560753562257,"198":-0.18216404111994053,"199":0.29297285701476583}},{"sx":5,"sy":5,"depth":8,"w":{"0":0.12211888011147815,"1":-0.13197866893058557,"2":0.0223118472357616,"3":0.16678965136048582,"4":0.08111249333395111,"5":0.1499490512773495,"6":0.1243520808473951,"7":0.09884446924493097,"8":-0.07569652933263728,"9":-0.0324267640484518,"10":0.10259913703414515,"11":-0.1190520584392105,"12":0.1331198023228138,"13":-0.1323732466023751,"14":0.1440080619128337,"15":0.10945388023864384,"16":-0.11955792513925005,"17":0.019729877464703324,"18":0.18210956942159393,"19":0.039735342249113924,"20":-0.13895026991319187,"21":0.13400660996661193,"22":0.07745228468670576,"23":-0.13301169732721776,"24":-0.1198687089169151,"25":-0.17885943581379724,"26":0.28138908770005155,"27":0.20259985926127755,"28":-0.03058480929672301,"29":0.0038951263875682536,"30":-0.05055235168333794,"31":-0.013274705278775301,"32":0.30609763757045777,"33":-0.2586639035122598,"34":0.33169979659388443,"35":0.09909563729794003,"36":0.17854030033292906,"37":0.06290258034528383,"38":-0.18237322821738206,"39":-0.20913788092377214,"40":-0.009109696465844608,"41":-0.061524076436232054,"42":-0.1380125187332364,"43":0.005570104526077509,"44":0.03784329936140754,"45":0.030419316069753573,"46":-0.04093630451679911,"47":0.041085548850036964,"48":-0.028090312831970034,"49":0.028551848238211098,"50":0.04682062510603083,"51":-0.0407702689765714,"52":0.09257323005095526,"53":0.04095749451982669,"54":0.1091075513628911,"55":-0.05583030052586426,"56":-0.12942009928662596,"57":-0.21628417414776402,"58":-0.20164214935766936,"59":0.08732482362096514,"60":-0.17468871495534982,"61":0.14436215884391032,"62":0.22152072135031295,"63":-0.2189472582594406,"64":-0.1805050893639196,"65":-0.3335479296361824,"66":0.039169226823304475,"67":0.2851773351706594,"68":-0.034384248366506845,"69":0.18456023259205523,"70":0.13923561118861633,"71":-0.032813728619510416,"72":0.18588189275144132,"73":-0.15854694117516183,"74":0.013700493955335055,"75":0.28383792335731817,"76":0.02653714546981825,"77":0.1366004244863559,"78":-0.015831281283227097,"79":-0.29001377823035995,"80":0.16594424949117217,"81":-0.0006252669910445008,"82":0.1143449556117764,"83":0.11140211873816852,"84":0.060023501633394795,"85":0.1653833394134704,"86":-0.06114536040767589,"87":-0.1324112014231137,"88":0.10199473338324272,"89":-0.05508998912894741,"90":-0.0008926052048342312,"91":-0.03607673447190276,"92":-0.013309292017020354,"93":0.19170431026019064,"94":0.14037442428556643,"95":-0.16475345889558898,"96":-0.15708183991352745,"97":-0.36103964906321806,"98":0.12089558361096793,"99":0.09840049521082135,"100":-0.2947874601343066,"101":0.059388867478581985,"102":0.12031180816690648,"103":-0.10898346534232912,"104":-0.07576465424105723,"105":-0.20656408016559727,"106":-0.01338283058903728,"107":0.07876975057124977,"108":-0.19893004761630903,"109":0.06764129103752495,"110":0.022665531865808605,"111":-0.001366126738033475,"112":-0.016650806939938607,"113":0.019759252113729642,"114":-0.033074884141811325,"115":0.09461723892642464,"116":-0.16488666930347431,"117":0.013305543154014506,"118":0.01947743244761756,"119":-0.051532090590406955,"120":0.08762262931947216,"121":0.07735012463472571,"122":0.18851413661829403,"123":0.057037135391751,"124":-0.09450854185111303,"125":0.00025848178349616093,"126":-0.06580163539620747,"127":-0.09819660752810587,"128":-0.15268334958400806,"129":0.10087475464534058,"130":-0.10390009474788839,"131":-0.06252791536127138,"132":-0.07789039763580352,"133":0.22447473764583004,"134":0.07450058639615356,"135":-0.3902885994060883,"136":-0.3077301584634384,"137":-0.04590094463005276,"138":-0.20527049329221503,"139":-0.018651497942047363,"140":-0.3588809524922068,"141":0.234334286363386,"142":0.19081260444474651,"143":-0.2353823109301964,"144":-0.30283400625404855,"145":-0.10666798119805294,"146":0.08005439836195119,"147":0.1898123527701248,"148":-0.16177229701594678,"149":0.19491495963479472,"150":0.1303804321523328,"151":0.03560268670194553,"152":-0.11894589965011168,"153":0.03888967008484732,"154":0.07065436522540194,"155":0.11753399292017334,"156":-0.1767279847379259,"157":0.027986011982871414,"158":-0.010244734540778516,"159":-0.05298938267612078,"160":-0.352658036689808,"161":0.3125330899395814,"162":-0.04278069745654827,"163":-0.11938647219532293,"164":0.10395064058443686,"165":0.061624983624070935,"166":0.05524027792471052,"167":-0.26210951413615535,"168":-0.285038250089718,"169":-0.0533648858950221,"170":0.08402832965041199,"171":0.03485559703867055,"172":0.01713522680270391,"173":0.08866594762104672,"174":0.17893127473736106,"175":-0.18194453410636063,"176":-0.17200167710088252,"177":-0.06374707525167284,"178":0.3013141817568669,"179":0.0062030333236035,"180":-0.2776366890166616,"181":0.3489309568729972,"182":0.29663584881883587,"183":-0.058815261499668176,"184":-0.05251314360455724,"185":0.004394677603059483,"186":0.24149600485405007,"187":0.050456416916523486,"188":-0.25565820007883444,"189":-0.06654953809949166,"190":0.10418730045448053,"191":0.022078154755505265,"192":0.022027328335410018,"193":0.1698468706768895,"194":0.2239084207270177,"195":0.02071299837903638,"196":-0.20794005013300051,"197":-0.0667884367335829,"198":-0.1597771637088307,"199":-0.2468883571716623}},{"sx":5,"sy":5,"depth":8,"w":{"0":-0.01060128585666167,"1":0.16452067671185636,"2":0.03993205061012992,"3":0.0681226475249381,"4":0.12792327661660355,"5":0.05901409844493473,"6":0.07708589756542414,"7":0.057574011223826375,"8":-0.14671883314683457,"9":0.17976697512258535,"10":-0.015601167125930447,"11":-0.0008369420458172301,"12":0.32548279858463064,"13":0.059641044929930026,"14":0.09783708980510901,"15":0.016276800987827432,"16":-0.01649584213032259,"17":0.21760841932097474,"18":0.004780849012088388,"19":-0.22349142259153568,"20":0.27951949786722063,"21":-0.008896771860310506,"22":-0.24779931541200853,"23":0.2602234594621385,"24":0.0814545239242309,"25":-0.31869785981001436,"26":-0.2514761770802073,"27":0.014749925971342023,"28":0.18294100853170317,"29":-0.14319579693045095,"30":-0.2208488437697921,"31":-0.03842085765941414,"32":0.34596418064546464,"33":-0.21450598885996675,"34":-0.09118379883444414,"35":-0.0034924227300917945,"36":0.22491645584381367,"37":0.01684424746961806,"38":-0.021779657832449374,"39":-0.29623721368080935,"40":0.004161425438469638,"41":-0.18222197460385384,"42":0.006877411260355398,"43":-0.07596139584634504,"44":-0.004711076690939184,"45":-0.18701253125565417,"46":-0.1092664356659627,"47":-0.0912241170378916,"48":-0.10979601551729273,"49":-0.09309873514740508,"50":-0.14682114455684764,"51":-0.16933229015247914,"52":-0.0275975082431199,"53":0.04052925757630453,"54":-0.17146118916976785,"55":0.040729980643291856,"56":-0.01446355221266022,"57":-0.0964462561852408,"58":0.08712608893025017,"59":-0.06875801139442678,"60":0.15149080953954333,"61":0.04423681276648184,"62":-0.15329722713794233,"63":0.05192929363312373,"64":0.15223276108582554,"65":-0.3630086509599345,"66":0.11699103148655411,"67":0.11850441139558918,"68":0.1749013300796983,"69":-0.03132143000097445,"70":-0.1415039603324871,"71":-0.08473628378937985,"72":0.24495896855816413,"73":0.041602854495336565,"74":0.2996876332567836,"75":0.19302957412901314,"76":0.15727940060969334,"77":0.03849204434752519,"78":0.18305990083162343,"79":-0.31436309221847947,"80":-0.013491117825344014,"81":-0.31770430365047164,"82":0.08165556286869236,"83":0.06898769290736519,"84":-0.2226896578028081,"85":0.004492459492104036,"86":-0.09940539488010944,"87":-0.10089981462714182,"88":0.03527500988292289,"89":-0.27242788896959874,"90":-0.1921989897345489,"91":-0.1655360128991579,"92":-0.07668554171626209,"93":0.020916752562573828,"94":-0.13373646000279404,"95":-0.1535581877830346,"96":-0.03384412372721314,"97":-0.11456493258905089,"98":-0.03694885260422211,"99":0.012305663360590148,"100":-0.06497045932481817,"101":0.019656886015150893,"102":-0.20447567017667234,"103":-0.14729449186740612,"104":-0.22673387477717338,"105":0.17656094923800142,"106":0.04411646817444361,"107":-0.186483749287076,"108":-0.0183155172725904,"109":-0.10498008975733886,"110":-0.06337535961027232,"111":-0.20631595939584302,"112":-0.2561487657431717,"113":0.368442766621045,"114":0.1960946699414608,"115":-0.09449504504477677,"116":0.23920024354910363,"117":0.09429978460801605,"118":0.12378639430565258,"119":-0.13777284726378805,"120":0.03383151083791444,"121":-0.18369873503052894,"122":0.19833390951848795,"123":-0.09278488302782129,"124":-0.007398999016641383,"125":0.0051336738285731945,"126":-0.10041714770114062,"127":-0.002090979153431793,"128":0.17347567168317876,"129":-0.2118806340150017,"130":-0.09660689334912129,"131":-0.03663049930266069,"132":-0.08028371777689279,"133":0.08423102295192957,"134":-0.03663307235500863,"135":-0.046382146297251015,"136":-0.03057500020206138,"137":0.10497251289595902,"138":0.08050051431342291,"139":-0.0038768018627566617,"140":-0.04098680896713357,"141":-0.10599115298810664,"142":0.019877905994939032,"143":0.006325602091114824,"144":0.121873486683134,"145":0.11536745343984411,"146":0.08086271818523878,"147":0.032589134950124436,"148":-0.1148062756474456,"149":-0.158085403105336,"150":-0.22342608456465432,"151":-0.018263459250608557,"152":0.003627632437450258,"153":-0.003593913587081925,"154":0.06901861376196351,"155":-0.13709919442168034,"156":-0.012373541081929984,"157":-0.025151526434787613,"158":-0.06947743184683344,"159":-0.26794336849399186,"160":-0.05609012539751968,"161":-0.23429019724819117,"162":-0.1349188664075032,"163":0.130482724888169,"164":-0.0387383998644431,"165":-0.03843681070730524,"166":-0.04904746996933157,"167":0.15217681709659797,"168":-0.09544775847561304,"169":-0.0644588797532216,"170":0.0034272849805589965,"171":0.06986986556903262,"172":0.010477380406636622,"173":-0.0975905846494899,"174":0.10474161306485844,"175":-0.06877173123596471,"176":-0.05699504095139913,"177":-0.13472432645172294,"178":0.009493486827903568,"179":0.04601555432211599,"180":-0.18343838271399943,"181":-0.004437233722724905,"182":-0.08062310572776334,"183":0.09372096101624582,"184":0.08027045137030384,"185":-0.15604410754710146,"186":0.1230405946603336,"187":0.17424261692665816,"188":-0.24017921657937458,"189":0.0718276501017091,"190":-0.03252522290092777,"191":-0.277490395082742,"192":0.18872144859895876,"193":-0.09101960313067073,"194":-0.1461807612096711,"195":0.13645796508786343,"196":0.02139072821124478,"197":-0.016729846403664688,"198":-0.07846911574145853,"199":-0.25824169651618495}},{"sx":5,"sy":5,"depth":8,"w":{"0":0.1339232316031601,"1":-0.06066227798159081,"2":0.005590323463548044,"3":0.2514882410205452,"4":0.0076959424970138215,"5":0.12022555971815489,"6":-0.11144765066618514,"7":-0.0006271927960484233,"8":0.11097773064207567,"9":-0.05645522401862824,"10":-0.054694058621215055,"11":0.09678800154348208,"12":-0.01334369207119401,"13":-0.002771578251633907,"14":-0.12171608981458977,"15":-0.037895616318972467,"16":-0.14088603484098605,"17":0.021696216204742047,"18":0.027086822206573477,"19":-0.04954252132949733,"20":-0.128514219122966,"21":-0.12342635604043445,"22":-0.0076695327366011305,"23":-0.1873748727284431,"24":-0.1670046338763768,"25":0.02082415635465762,"26":-0.1089196297281709,"27":-0.2267358112196487,"28":-0.023383692477174624,"29":-0.060854446092157885,"30":-0.1485373669747996,"31":0.01715694419465295,"32":0.0826289996201824,"33":-0.006683878497676778,"34":0.05876188730609167,"35":-0.06731464959148024,"36":0.10207111876829066,"37":0.39197928222971,"38":0.23615335169911356,"39":0.03473799971214848,"40":-0.041096612971765624,"41":-0.02145301347964779,"42":-0.21564457920519084,"43":0.16547968257884757,"44":0.08600911497384343,"45":-0.12288713292446095,"46":0.07090733164127462,"47":0.022975096467857684,"48":-0.22181452970149615,"49":0.023239358924862407,"50":-0.013157434592742665,"51":-0.12201134037798005,"52":-0.05389386099683476,"53":-0.17768126390849506,"54":-0.2773434716729208,"55":-0.008393142071696912,"56":-0.34463835202882454,"57":-0.04435248491619052,"58":-0.12324564090399664,"59":-0.37914459406066375,"60":-0.16039575320141547,"61":-0.10821061312370196,"62":-0.07384808544354172,"63":-0.004304860406321031,"64":-0.031492771959258536,"65":0.052733310002702295,"66":0.0815769294055031,"67":-0.13559940191616174,"68":0.10247118067731241,"69":-0.06968145349306389,"70":0.03550686873196053,"71":0.07969010460557543,"72":0.3042818744081118,"73":0.23853908573183052,"74":0.07778873865586546,"75":0.07343082405133745,"76":-0.1734359528905362,"77":0.08978704277858178,"78":0.16558942053996833,"79":0.10800691200588446,"80":-0.3180864795861418,"81":-0.007112478867264511,"82":-0.26352273124898734,"83":-0.17949412719231328,"84":0.19764141876977268,"85":-0.15901090716507899,"86":-0.002826859972262169,"87":0.10954810304714098,"88":-0.1088522403061974,"89":0.057524535206573656,"90":-0.14305380430890363,"91":-0.2598668926147669,"92":0.3127045323951736,"93":-0.2093660460686466,"94":-0.16418102867330236,"95":0.07329439730897667,"96":-0.19753994017758997,"97":-0.08354858398247582,"98":-0.30480378793026697,"99":-0.2698079623848472,"100":-0.08814342366849713,"101":-0.3455267877904481,"102":-0.2207384906891541,"103":-0.15642197621962006,"104":-0.2898121252388335,"105":0.10624464053895444,"106":-0.21014401079907935,"107":-0.5187744771902929,"108":-0.24235362670227112,"109":-0.13996874360853656,"110":-0.004913867744255216,"111":-0.1610369577746024,"112":-0.19924662510479071,"113":0.37634272382954914,"114":-0.0794737092756941,"115":-0.27461898614266206,"116":-0.08840062093018915,"117":-0.3043845367139727,"118":0.16296190022526277,"119":0.09623463600811928,"120":-0.17816952427587066,"121":-0.0723240937726613,"122":0.09564757473373839,"123":-0.20593398818732797,"124":0.26635922494915465,"125":-0.2196303363853673,"126":-0.017474258828086158,"127":0.049621779664508814,"128":0.07057911671147292,"129":-0.1325497849360505,"130":-0.05858385677304504,"131":-0.06790950597990307,"132":0.07592882036267994,"133":-0.12408562037406475,"134":-0.1638691436621525,"135":-0.027910681890702452,"136":0.07747979252257407,"137":-0.15473080111200943,"138":0.23781563354220356,"139":-0.0616665316083382,"140":-0.009574529821288301,"141":-0.15187836955056938,"142":-0.32523271788440633,"143":-0.223474602476214,"144":0.010778635121020739,"145":0.267860038123581,"146":0.15948216258983286,"147":0.012812981182459783,"148":0.06107299983174076,"149":-0.4731704828032057,"150":-0.17983016727578777,"151":-0.2920120450356432,"152":0.03178524261522344,"153":0.23417535451670893,"154":-0.2778038564528018,"155":-0.3146993267448131,"156":0.034455027231893205,"157":-0.34962084397881216,"158":-0.25623828977935553,"159":-0.18774352861929772,"160":0.017056930115552645,"161":-0.18177694561685448,"162":-0.29452198703196975,"163":-0.3502135487439563,"164":0.10504471673314326,"165":-0.2321968651734034,"166":-0.24510633873910728,"167":-0.02195032539434441,"168":0.1511241320257958,"169":0.04790141701101992,"170":-0.19999039902200075,"171":0.04476981087415409,"172":0.11135143841259193,"173":-0.03517545246367866,"174":-0.006458973954705994,"175":-0.274648300743948,"176":0.21067908655839399,"177":-0.15116851782119417,"178":0.12498862992485432,"179":0.27216735157367095,"180":0.1659834806953876,"181":0.342764250939709,"182":0.18040246455962092,"183":-0.0776038850084749,"184":0.4182845629806678,"185":-0.2187630448118814,"186":0.2775478229535634,"187":0.3571215558408543,"188":-0.001310498458427405,"189":0.13215251307397521,"190":-0.019693018547656715,"191":-0.38508275375646867,"192":0.3282748296279475,"193":-0.6020955029322436,"194":0.2329649452568513,"195":0.3135468346482038,"196":-0.03003199476351863,"197":0.25127918298227514,"198":-0.29542603381002036,"199":-0.294636894241627}},{"sx":5,"sy":5,"depth":8,"w":{"0":0.03036286798817025,"1":-0.15789047156693156,"2":0.051833614598901546,"3":0.039905644240118686,"4":-0.09667344024273139,"5":-0.043611026897720694,"6":-0.21406519192347992,"7":0.005210539217086052,"8":0.00008441727556460235,"9":-0.18389558526453428,"10":-0.06643107747730582,"11":-0.02245670442594303,"12":-0.035808725156519214,"13":-0.007239306032813702,"14":-0.011276894930022081,"15":-0.12491555139608691,"16":0.04239143434536089,"17":-0.3466101632617287,"18":-0.23436239566207784,"19":0.020357098184708017,"20":0.0457764541494558,"21":0.10523359568860445,"22":0.05423940134438956,"23":-0.0817080095681365,"24":0.1138088959097062,"25":-0.3255014046619654,"26":0.2064440490601718,"27":0.004268803116927257,"28":-0.05151833371991462,"29":-0.10177480371045028,"30":-0.021907508252955135,"31":0.1318355971981279,"32":0.10826610478664266,"33":-0.32848022955991124,"34":0.2587593771380487,"35":0.011906443959113009,"36":-0.1109784829362323,"37":-0.0391398149762397,"38":-0.17573153506184916,"39":0.0514358312628554,"40":-0.0628770764394447,"41":0.007771192544893619,"42":0.03155164644453632,"43":0.11521402262068839,"44":0.10905523985233026,"45":0.018295898063608654,"46":-0.05877299491741656,"47":0.2185995588179665,"48":-0.1744616205664843,"49":-0.02652712466400751,"50":-0.22968266969231535,"51":-0.14865781224682229,"52":-0.021573950232223863,"53":-0.16426697238697935,"54":-0.024027958851985113,"55":-0.11674459079017063,"56":-0.15885900460124355,"57":-0.03882352772672192,"58":-0.20900916737226385,"59":-0.13662234902483217,"60":0.010227149572408788,"61":-0.006847900243124985,"62":0.0987252775540875,"63":-0.061886643427534485,"64":-0.2751611763148542,"65":-0.05755561990759057,"66":-0.0003522482787554546,"67":0.018537209607868112,"68":-0.13868761470666088,"69":-0.12581621481218674,"70":-0.1077638463447326,"71":0.12575663423772865,"72":-0.17718732570901205,"73":0.131725008964566,"74":0.08049044959634172,"75":-0.2149007091435576,"76":-0.191480378965375,"77":-0.045582332415663895,"78":-0.055680416129737745,"79":0.10397427604450152,"80":-0.016568479308258843,"81":0.04827539391785831,"82":0.09215020344569473,"83":-0.05570252361314755,"84":0.2218880850012693,"85":-0.2812552085832556,"86":-0.14137606284746415,"87":0.34688860064563115,"88":-0.13495304450882384,"89":0.10292016209027884,"90":-0.1870037364040232,"91":-0.23145630862734207,"92":-0.11600802952373099,"93":-0.1599829023855846,"94":0.013575712675573488,"95":-0.07581533570606314,"96":-0.08506277829684172,"97":0.059762964750879034,"98":-0.19978593280054674,"99":-0.021990529321628014,"100":-0.06008695588441803,"101":0.03203674438354534,"102":0.16663617501777206,"103":-0.22074971563009876,"104":-0.007526409524601354,"105":-0.018805503333559754,"106":0.009381260602982154,"107":0.15042961000059812,"108":-0.30911419677689356,"109":-0.095688447852145,"110":0.12224012629760368,"111":0.03183440866213909,"112":0.11544097278809011,"113":-0.08283271500208014,"114":0.11885207441999975,"115":-0.2379270800949752,"116":-0.15688321921711307,"117":-0.17037693512715132,"118":-0.10945163413833121,"119":0.030421834752605414,"120":-0.19219411910572373,"121":-0.10604719100365716,"122":0.033338067420337764,"123":-0.09082259964282542,"124":0.1375341710777351,"125":-0.17559941380853222,"126":-0.18872282473616422,"127":0.07567455561054129,"128":-0.15722698579500488,"129":-0.023169886008700336,"130":-0.10199595006098562,"131":-0.15633151855106361,"132":-0.08109591163327935,"133":-0.03674646888121998,"134":0.08459459188692729,"135":0.05312356653037619,"136":-0.16309178073693592,"137":0.05770913383558411,"138":0.030866799617728462,"139":-0.12095617229035639,"140":-0.4390827207951091,"141":0.07765481050999583,"142":0.0890284539509133,"143":-0.24405301923642925,"144":-0.026317657376198476,"145":0.029317902802976796,"146":0.12737487026177594,"147":0.014832187311382368,"148":-0.2659253191108359,"149":0.059921346183678705,"150":0.09593054151413791,"151":0.16387989629807215,"152":0.14132669010648422,"153":-0.20178638864120407,"154":0.0784462359392624,"155":-0.13220253814737257,"156":-0.1954963829554657,"157":-0.22806652800155464,"158":-0.2816413905944408,"159":0.16348678411175513,"160":-0.2247566145635404,"161":-0.05026309004258733,"162":0.0486987337274186,"163":0.00941813972774014,"164":0.07843799192041968,"165":-0.037874098932943245,"166":-0.19958831857987214,"167":-0.020727715164558666,"168":-0.12190458905466683,"169":-0.08339742655194833,"170":-0.131291934669343,"171":-0.04433804653303357,"172":-0.14432051564417694,"173":-0.17402028164292196,"174":-0.1367772822935896,"175":-0.08284572068158301,"176":-0.024030657011678686,"177":0.023116742381531254,"178":-0.082665766333734,"179":0.04942940493713456,"180":-0.4478812906439671,"181":0.09010240948081591,"182":0.2180105898768253,"183":-0.10383174549259602,"184":-0.13407998954029224,"185":-0.13132612524955503,"186":0.11932614740297784,"187":0.07301213400004371,"188":-0.20619297606037673,"189":0.15126691460035854,"190":0.11936626648856878,"191":0.004996343459134459,"192":0.012075546280625947,"193":-0.13923304761269037,"194":0.11011692105977142,"195":-0.058184806839052465,"196":-0.15943840959208944,"197":0.00223609849394574,"198":-0.20572319595291086,"199":0.21574685450400893}},{"sx":5,"sy":5,"depth":8,"w":{"0":-0.07220111294838737,"1":-0.024341358950148606,"2":-0.021178993466832535,"3":-0.18393942246602552,"4":-0.10897765953695628,"5":-0.19542072070472105,"6":-0.12444246871671023,"7":0.18450247743669243,"8":-0.20979076980507766,"9":-0.08074000570216096,"10":-0.25214330863031803,"11":-0.39766757382774076,"12":-0.08604169937390552,"13":-0.15877433051624723,"14":0.004951652117619615,"15":0.048713928490325215,"16":-0.13283578630799678,"17":0.06504239242749867,"18":-0.3583200615634722,"19":-0.18408825988876956,"20":-0.16114931156833442,"21":-0.0224755555511997,"22":0.2503056308102044,"23":-0.05646945847829403,"24":-0.20509520178515586,"25":0.0261696315675693,"26":-0.09660873476286377,"27":-0.007135254039476189,"28":-0.3400996627448763,"29":-0.08978292521461728,"30":0.26397021678827465,"31":0.04223579207033367,"32":0.0420625776815463,"33":-0.2221467227434457,"34":0.11341819769463264,"35":-0.10348421848115513,"36":0.05837475541642423,"37":0.04116597021074476,"38":-0.0030193871167811495,"39":0.16228253876882223,"40":0.06527739060295155,"41":-0.21985097989006294,"42":0.1348054828798822,"43":-0.05985062594504745,"44":-0.061021423943345206,"45":-0.15877694441552948,"46":0.018187357901948066,"47":0.2956223623161031,"48":0.1260496027283203,"49":-0.31095786618659316,"50":-0.2679288391728628,"51":-0.25226874936962357,"52":-0.021560299541296363,"53":-0.10755295283893108,"54":-0.16182652495379374,"55":-0.01347008365033692,"56":0.02725363921148329,"57":-0.10895245115346915,"58":-0.3315360586988301,"59":0.10445003155131576,"60":0.0417236773428525,"61":0.08478035644447904,"62":0.11451539053739244,"63":-0.2025935441732808,"64":-0.08996946876173229,"65":-0.15968429597958922,"66":0.14995337311231932,"67":0.1381610385594434,"68":-0.10629387040887081,"69":0.11605279438153089,"70":0.06636666463517187,"71":0.04512333733552211,"72":0.051717379028309356,"73":-0.090001956297736,"74":0.24294154982303534,"75":0.12327865832230564,"76":0.0231066561502896,"77":0.09339942248496384,"78":0.02947859632601297,"79":-0.01139018716961235,"80":0.001263866722367229,"81":-0.15319043879577612,"82":-0.09861905546517832,"83":-0.113288405247216,"84":0.05116266205015667,"85":-0.22631466147458631,"86":-0.27344505384287515,"87":0.42108537038637606,"88":0.06458249927215201,"89":-0.4841838563921183,"90":0.0034631219854436377,"91":-0.023059670676476046,"92":0.07160267522835605,"93":0.026033404539520615,"94":-0.10060541322338622,"95":0.07217572726407205,"96":0.17851183568566478,"97":-0.18324583224584176,"98":0.03637662511950985,"99":0.34765650153682703,"100":-0.020036353236293845,"101":0.11558770938485063,"102":0.3896635003229097,"103":-0.14428656985397503,"104":-0.07373774694200269,"105":-0.03208010669336076,"106":0.18343970103628227,"107":0.11308846068772926,"108":-0.13010904098204976,"109":0.021515692636011236,"110":0.20750802764000986,"111":0.0957867575772774,"112":-0.07601057594356804,"113":0.04145537580225744,"114":0.2214801523731571,"115":-0.07603159818697981,"116":0.13585738317097057,"117":0.07650623396016847,"118":-0.1244798307184502,"119":0.2588500242970898,"120":-0.0793522863493101,"121":-0.36978571943092164,"122":-0.09051812113201776,"123":-0.09336580021037486,"124":-0.11294611855338448,"125":0.01656417095966775,"126":-0.08158826655378573,"127":0.1727658263290119,"128":0.15365859571304732,"129":-0.3227789234477063,"130":-0.20950756669024842,"131":0.07670030597106064,"132":-0.11032971924290044,"133":0.03857673868673506,"134":0.1995517195459845,"135":-0.03472200439957994,"136":-0.1087212223638657,"137":-0.39294787741106046,"138":-0.19199537185760956,"139":0.17863321532602727,"140":-0.4627233143854905,"141":0.04041038294202722,"142":0.10339438942050408,"143":0.022237264714486418,"144":-0.30059112632089124,"145":-0.23103962837603736,"146":0.126763467266341,"147":-0.08033742709166582,"148":-0.11751343938340081,"149":-0.27894643074687,"150":0.12236427048785627,"151":0.24562804315846426,"152":0.025843246943242977,"153":-0.2455289730003945,"154":-0.19390389829936766,"155":-0.044971036702044526,"156":-0.03274457535176397,"157":0.029382326931026208,"158":0.03836293152542555,"159":0.038466880002909654,"160":0.17299464095069286,"161":-0.3704020738470675,"162":-0.1530948320335468,"163":0.10349164504604563,"164":0.12272898736976354,"165":0.09220071993611495,"166":-0.07344876438305402,"167":0.15219201506591448,"168":-0.016512223386051173,"169":-0.34734166986198334,"170":-0.36064787197440784,"171":0.1252209425520265,"172":-0.27608210555471485,"173":0.09004968820813701,"174":0.2003387785492622,"175":-0.007461442153193783,"176":-0.3750299412185026,"177":0.007994484763960197,"178":0.07917159181147916,"179":0.19690192378658927,"180":-0.28623083818093586,"181":-0.10116336547021548,"182":0.18262635073258773,"183":0.17617009675507653,"184":0.09056278772196402,"185":-0.15756686234488496,"186":0.37973460969582074,"187":0.06724271777078024,"188":-0.07198581878747604,"189":-0.040185066329827046,"190":-0.022443469437419886,"191":0.11213448950458908,"192":0.1536631468694013,"193":-0.12637136080138753,"194":0.05837387713958738,"195":0.10650252089142105,"196":-0.19918264327467214,"197":-0.06596341422727549,"198":-0.09786331524070968,"199":-0.1671785861959739}},{"sx":5,"sy":5,"depth":8,"w":{"0":0.027808753843580686,"1":-0.06550331667790955,"2":-0.02132516312006062,"3":0.04176864857548324,"4":0.060792147448218675,"5":-0.09577756832892595,"6":0.0253050612711254,"7":-0.05084858791630045,"8":-0.0897201335575381,"9":-0.0595424731154948,"10":-0.039527697878428365,"11":-0.013032024899273246,"12":-0.024611363733937904,"13":-0.06485222583773509,"14":-0.02648377946649698,"15":-0.05057513394472106,"16":-0.0034248232096407757,"17":0.07641319462576798,"18":-0.15378807264915323,"19":-0.022148740281701385,"20":0.04736359668207954,"21":-0.03016335389303062,"22":-0.024898470965541073,"23":-0.11172841497415303,"24":0.057637352191859975,"25":0.008390179206576675,"26":-0.04336800747867534,"27":-0.08869256161387035,"28":0.004726500272395521,"29":-0.05017193513114802,"30":-0.031456394284304065,"31":-0.08013938873912266,"32":-0.07117316728966093,"33":0.08502394445835557,"34":-0.019920925878174026,"35":0.10266843601467328,"36":0.030131433409184796,"37":0.0010578517784157768,"38":-0.04421067609078981,"39":-0.0012783315030378117,"40":-0.07664184856959114,"41":0.0904233167131821,"42":-0.03408023716607891,"43":-0.1473936246060923,"44":0.013111261811043036,"45":0.049935014052173564,"46":-0.05596297825037271,"47":0.018070452839580087,"48":-0.12901218963462618,"49":0.08566275968075258,"50":-0.12576947244580272,"51":-0.02285490215228626,"52":-0.06403586925802257,"53":-0.014348478554645121,"54":-0.08979428868626861,"55":0.07092537285095862,"56":-0.09094327080478948,"57":-0.049820574092606436,"58":-0.10401089608686309,"59":-0.09074230853925991,"60":-0.08220749182424152,"61":0.042768770209402535,"62":-0.06507430984785292,"63":-0.015627115993103187,"64":-0.1181950088223586,"65":0.07879096319349255,"66":-0.01621759823906141,"67":-0.030980776719238236,"68":-0.09882138624538926,"69":-0.035725656519868317,"70":-0.06969295970700315,"71":-0.07469478738167445,"72":-0.09160927667354768,"73":-0.010839852436952648,"74":-0.02314618124928301,"75":0.0534357547812997,"76":-0.04212337675320966,"77":-0.044791441773702916,"78":-0.09860605364614468,"79":0.016616954597453232,"80":-0.06819708552641718,"81":-0.0778952452324232,"82":-0.1222932997174921,"83":-0.0007616429735813681,"84":-0.039500487042557084,"85":-0.00009658240127011523,"86":-0.07652985540653698,"87":0.01784413323678395,"88":-0.0321066551294645,"89":-0.13629442050185472,"90":-0.12429858897256134,"91":-0.11388982042866762,"92":-0.07798567732358855,"93":-0.1331375397119408,"94":-0.128780518860721,"95":0.017657209072328508,"96":-0.07197384808438331,"97":0.04489629605963814,"98":-0.08908372369352484,"99":-0.08417049767590686,"100":-0.013746014513455107,"101":0.04525005190059241,"102":-0.18753162749462407,"103":-0.06459678551105862,"104":-0.10527105649510576,"105":-0.09813551241908873,"106":-0.06837761355212935,"107":-0.027914335306338595,"108":-0.036752707829827015,"109":-0.13745895540936776,"110":-0.11858718107250715,"111":0.01715753727620815,"112":-0.15324998862059638,"113":-0.049681542439244476,"114":-0.09376847944916944,"115":-0.05101880267883233,"116":-0.0020868816639005674,"117":-0.11120988992556852,"118":-0.05345936857972104,"119":0.04356871090163936,"120":0.010121670204294882,"121":-0.022660330699278284,"122":-0.06449087089835677,"123":-0.06639496993563697,"124":-0.02483565182270861,"125":0.028878360526075807,"126":0.026946175322498767,"127":-0.07873559116394098,"128":0.028393772697872428,"129":-0.08069890613472064,"130":-0.07552652896501183,"131":-0.06782898241265545,"132":0.09264449384842473,"133":-0.043103883603808055,"134":0.005609737129075017,"135":0.030867184756956392,"136":0.00966290404753873,"137":-0.09439664603254842,"138":-0.057348848701672055,"139":0.11951593867065695,"140":0.026220301364144098,"141":-0.10363750474611576,"142":-0.025568715012733913,"143":-0.16307635161441936,"144":0.06061708653687476,"145":-0.06018080134601422,"146":0.15807233319952582,"147":-0.06209513266830193,"148":0.08188534427070183,"149":-0.08792954253955669,"150":-0.187624986541155,"151":-0.11036470974480547,"152":0.11947161661677158,"153":-0.07987818636821531,"154":-0.07446438616914686,"155":-0.00578365656511849,"156":-0.13399124822558875,"157":-0.11395258728209247,"158":-0.04194620109770503,"159":0.012195742867234908,"160":0.2551455788627746,"161":-0.0060001957794481725,"162":-0.04810194777275142,"163":0.2152211863683193,"164":0.24237328239587566,"165":0.07745296940691025,"166":-0.046563163725507284,"167":-0.2799839888706701,"168":0.019802475569064483,"169":-0.02233032859356401,"170":0.004103486818230093,"171":0.0001418382573820923,"172":-0.17388902612199475,"173":-0.18431569062868552,"174":-0.05395584242990933,"175":-0.029582216136324245,"176":-0.2461944600563243,"177":0.15372992992778522,"178":0.11863949867454722,"179":-0.2033781683961454,"180":0.002644610172711923,"181":-0.08822218211213678,"182":-0.1987571428472476,"183":-0.15511475403739913,"184":-0.09078154314391958,"185":-0.006986229537002033,"186":0.21641046056445967,"187":0.17930697446578728,"188":0.02671836106197423,"189":0.13746342139673387,"190":0.16226450385020658,"191":-0.18835298812476678,"192":0.05382273623948936,"193":-0.046152444983941616,"194":0.028793208571614846,"195":0.16672821225458254,"196":-0.08292905268683663,"197":-0.0011896292354031217,"198":-0.07008735500761591,"199":0.054368865651783026}},{"sx":5,"sy":5,"depth":8,"w":{"0":-0.08400080977072803,"1":0.35055755897143637,"2":0.2342141501937278,"3":-0.12573422907637996,"4":0.25833625643157776,"5":-0.10013321802474841,"6":-0.1536247588212306,"7":0.032989705791402084,"8":-0.05495811555415904,"9":0.25276007071839196,"10":-0.15758291539879388,"11":0.02716276354906231,"12":0.07014912777283482,"13":-0.18201444875661865,"14":0.11495681784275334,"15":-0.013648229254684969,"16":-0.12762512309184912,"17":0.19075728051289279,"18":-0.25540574719261017,"19":-0.12630105910597367,"20":0.13435752789613886,"21":-0.06856226420964555,"22":0.016980150846982598,"23":0.24397629399580725,"24":-0.1167468688416084,"25":-0.005737483106774252,"26":-0.13643064989105178,"27":-0.06376974320359569,"28":0.04112110885342212,"29":-0.1752051421637858,"30":-0.002750915292223571,"31":0.017258901226219196,"32":-0.017027672249134644,"33":0.016866241087353993,"34":-0.2732120978236638,"35":-0.22963937867641185,"36":-0.1416270990407409,"37":-0.17989266209606888,"38":-0.13195285083894487,"39":0.03681323722709084,"40":-0.13594970942089082,"41":0.11705334338236893,"42":-0.17248086349752362,"43":-0.18469774582499157,"44":0.1364692478354376,"45":-0.11449896700205031,"46":-0.028243814550771008,"47":0.08189673718877909,"48":-0.056388191761173545,"49":0.04402852247400177,"50":-0.2390790088092455,"51":-0.144163740840313,"52":0.17679697938318206,"53":-0.009158101092286389,"54":-0.02615582315092462,"55":-0.03319749517242648,"56":-0.07454401612382132,"57":0.03028859724358987,"58":-0.0942742534308798,"59":0.004174809017081633,"60":0.12166118180852468,"61":0.009658653479592987,"62":0.11103981170187151,"63":0.22739562355445675,"64":0.0745272731881314,"65":-0.23145912382943076,"66":-0.025670758377260128,"67":-0.04939644120056342,"68":-0.001770028061382812,"69":-0.08068059779018445,"70":-0.24316352020657778,"71":-0.03496945841842104,"72":-0.03994406368287757,"73":-0.3683067257733545,"74":-0.16672480739677506,"75":-0.3188413461140577,"76":-0.25268428962432576,"77":-0.24807468790571108,"78":-0.2310429119216797,"79":-0.08577352518722042,"80":0.021148177535453287,"81":-0.1714281165031688,"82":-0.14300344097802967,"83":-0.17666676037294637,"84":-0.061431614754802334,"85":-0.20360521502896642,"86":-0.15415835771537345,"87":-0.1273886184661801,"88":-0.0680329389942852,"89":-0.04200335427256954,"90":0.0158483668427398,"91":-0.1883192170944597,"92":0.03064291833332157,"93":-0.1361759952010481,"94":-0.03769561445752436,"95":-0.19158786706213654,"96":-0.038975810012322,"97":-0.06500179820220536,"98":-0.040336014535273156,"99":0.10579596573116407,"100":-0.15736890754085245,"101":0.06296716736393732,"102":0.0484857343766299,"103":-0.06994192010433258,"104":-0.08579565197403458,"105":-0.2708742863742135,"106":0.11463999918416985,"107":0.11975717615421615,"108":-0.3070421753103347,"109":-0.11126188271118037,"110":0.037531227311892026,"111":0.06655752476987092,"112":0.0166721611327795,"113":-0.4088170173791679,"114":-0.08043869628495658,"115":-0.17473522287804813,"116":-0.4723046702784678,"117":-0.17898076203759797,"118":-0.4027187444662878,"119":0.13148697807607126,"120":-0.0044650891401420804,"121":-0.16757500184834692,"122":-0.024369367242000162,"123":-0.11528368556472902,"124":-0.06519453360471254,"125":-0.21466743690713422,"126":-0.2140312257823011,"127":-0.10332775492640792,"128":0.0583088539565085,"129":0.15926519264472838,"130":-0.12654175286814234,"131":-0.1658681656258673,"132":-0.018200345913495633,"133":-0.09441769099689044,"134":0.12651341152312273,"135":-0.1774000715690654,"136":0.06567697934770272,"137":0.10830397403111172,"138":0.04190587473860945,"139":0.06271615402868326,"140":-0.16182135394341104,"141":0.0645857609890491,"142":0.1877446790653806,"143":-0.0759662198900894,"144":-0.10221522307164857,"145":-0.16736569875115034,"146":0.14538835747866452,"147":0.13851018969564524,"148":-0.18320265839244468,"149":-0.05424140296614808,"150":0.02788928202514401,"151":0.015181070565938473,"152":0.14324216433342216,"153":-0.28239301898328345,"154":-0.037408741136232174,"155":-0.12791932719011928,"156":-0.25190556476896175,"157":-0.1573113651755655,"158":-0.1431950135446337,"159":0.22748098139604034,"160":-0.014638653732017276,"161":0.007214271170550714,"162":0.036491863640888,"163":-0.12142642874315544,"164":-0.10476353483689406,"165":-0.18689066118143471,"166":-0.07973780843669284,"167":-0.17857667145856784,"168":-0.062414624741366206,"169":0.10262327673418473,"170":0.029223657532995596,"171":-0.1309259211249322,"172":-0.1653438904094415,"173":0.10210031704063212,"174":0.009478324434020458,"175":-0.3892173008728792,"176":-0.04409924224018328,"177":-0.06959696764008154,"178":-0.00876244807291291,"179":0.07976004643165645,"180":-0.47517007394085164,"181":0.3173706570447577,"182":0.29838056323749657,"183":-0.2933198175490103,"184":-0.005566774464639265,"185":-0.2747323901503304,"186":0.01432542242774438,"187":0.26102288676930363,"188":-0.35718314486992264,"189":0.02814136929708597,"190":0.18128384753799442,"191":0.09570991179946149,"192":0.25516958217784597,"193":-0.326400294301268,"194":-0.027093169059700956,"195":0.1441057960528179,"196":0.06792666243779465,"197":0.08634921124636341,"198":-0.10982167242661448,"199":0.3048896812395604}},{"sx":5,"sy":5,"depth":8,"w":{"0":0.07548833040038742,"1":-0.10686999073895967,"2":-0.09428052178427503,"3":-0.22612324709274445,"4":0.04855679735885537,"5":-0.012191888354154412,"6":0.07428492796053014,"7":-0.38816082641466415,"8":-0.015133331247626915,"9":-0.15462397404182077,"10":-0.0876095275580505,"11":0.10119276830506618,"12":-0.19531235363979302,"13":-0.00007928260088975556,"14":-0.00902411377759718,"15":-0.2502346656627831,"16":0.11386670364831038,"17":-0.23408029422244525,"18":-0.14789587489953654,"19":0.06059114757752323,"20":-0.34397241038838927,"21":0.232145542490882,"22":0.18616538555447382,"23":-0.007900131151201658,"24":-0.26162991569191396,"25":-0.0029767923928079093,"26":-0.08510377169637427,"27":-0.0683887610766073,"28":-0.2590470410023813,"29":-0.124922248717822,"30":0.06664412130742864,"31":0.07484816819953359,"32":-0.09162550150982916,"33":0.008515324705834293,"34":0.004195216179034046,"35":-0.08755458819571726,"36":-0.04944280143654099,"37":-0.03628133555275057,"38":0.1171859153581574,"39":-0.0677620806121694,"40":0.10776117639766185,"41":-0.23584466641877497,"42":-0.08601743680953242,"43":0.06829140029998033,"44":-0.026273052679336693,"45":-0.16232700397681418,"46":0.03899942918855852,"47":-0.49488457719791024,"48":0.011347329683470743,"49":0.1430181979523703,"50":-0.21040850058924793,"51":0.08567364726803037,"52":-0.05147326094028528,"53":0.058575734377820085,"54":0.30377749081043065,"55":0.006652082239802951,"56":-0.12129871779971231,"57":0.02211649196739729,"58":-0.2525779944826844,"59":-0.028782929601280142,"60":-0.2155344169841212,"61":-0.05164873056151661,"62":0.2572754874750456,"63":0.1925062938379091,"64":-0.21487362335799018,"65":-0.09375509642360381,"66":-0.16932666473878474,"67":-0.32949541829921936,"68":-0.03808786280007938,"69":-0.018115060622194323,"70":-0.21266663422497945,"71":0.08393535433650505,"72":0.002352055686159992,"73":0.023871057898488417,"74":-0.11887286455461603,"75":-0.061652665993459636,"76":0.0472650099392813,"77":0.16423287979234655,"78":0.004895065277313874,"79":0.05701898690945093,"80":-0.08200179803661715,"81":-0.004041145526743979,"82":-0.11183405253194262,"83":0.016659934851300837,"84":-0.00661060340571699,"85":-0.06845839961666127,"86":0.11427510074295141,"87":-0.28507075387129,"88":-0.1300989762177805,"89":0.14238910516949982,"90":-0.1369503096740979,"91":0.21057723854044694,"92":-0.18220183715114277,"93":0.12651177207913306,"94":0.219704198160326,"95":-0.17181267080884052,"96":-0.06639074114093033,"97":-0.061007363979631454,"98":-0.03895399713804427,"99":0.0099281948225535,"100":-0.2741799575724168,"101":0.04044751776699752,"102":0.1515182583220077,"103":0.20573309116303848,"104":-0.2060444259148674,"105":-0.21915130735952046,"106":0.14261231623948908,"107":-0.3842800476241835,"108":-0.07016273453294426,"109":-0.05998726767946746,"110":-0.2014465503531768,"111":0.21835632421390494,"112":-0.02040661863858917,"113":0.07939119510943997,"114":0.09899305382694754,"115":-0.1507267673825795,"116":-0.08508443931297079,"117":0.03007480393836172,"118":0.12637252019496845,"119":0.15245173229313483,"120":-0.3822878645014169,"121":-0.035018698356617875,"122":-0.36878967242425115,"123":-0.03973141523063734,"124":0.18458483666804967,"125":0.07488562178991988,"126":0.3249279277140878,"127":-0.10296705653821712,"128":-0.35591001910282277,"129":-0.08423398310922361,"130":-0.07821232927851204,"131":0.15120826683508864,"132":-0.22387768773662545,"133":0.19597589003287916,"134":0.2028870613050731,"135":0.1509664251429188,"136":-0.16730213414402384,"137":-0.10094771581477503,"138":0.24019178108182804,"139":0.0967233612982079,"140":-0.16171830414175292,"141":-0.07787758653177636,"142":-0.0021195527985279497,"143":0.35643327327469787,"144":-0.05924064267514611,"145":-0.11394219010223465,"146":0.21288420593178461,"147":-0.27585473486042195,"148":0.013930153401194093,"149":-0.22485465495811532,"150":-0.12366082565177239,"151":0.2589382339950878,"152":-0.0029127199867830934,"153":-0.19963968806446292,"154":0.02673383707313802,"155":-0.18662721345035393,"156":-0.15806060414068548,"157":-0.18896097415513147,"158":0.043543233742319706,"159":-0.03194445629052632,"160":-0.44666212271115224,"161":-0.18457524695697933,"162":-0.2969951375241497,"163":-0.08979306539172548,"164":-0.17753833588027096,"165":-0.03902888640088399,"166":0.1255872298224482,"167":0.042238510859422075,"168":-0.12305044340649902,"169":-0.07280805368483872,"170":0.0374813631250492,"171":-0.17210053361928637,"172":0.08863735684981225,"173":0.09608539529134527,"174":0.16994624643810013,"175":0.05187848570523838,"176":-0.07131360713259326,"177":-0.16911529683950743,"178":0.1368717300500483,"179":0.12688767764115144,"180":0.0702499576814661,"181":0.1465028581399035,"182":0.0022946435843034115,"183":0.19863348218098925,"184":0.08108264495153278,"185":-0.3038987306149204,"186":0.05988272494026759,"187":-0.024474801126972156,"188":-0.07805548370694002,"189":0.09264303649469773,"190":-0.11088977922096764,"191":0.06780666772330086,"192":0.04237384799151439,"193":-0.17580276334544262,"194":-0.015492757044612164,"195":0.03667069307425391,"196":-0.31830440298375146,"197":-0.1895881870301719,"198":0.02160608785045716,"199":0.0044503146239696124}},{"sx":5,"sy":5,"depth":8,"w":{"0":0.08206750747087849,"1":-0.19071380894287368,"2":0.06340571839686208,"3":0.05373121652301798,"4":0.0974605853140086,"5":-0.03549309159418409,"6":0.058549601621570704,"7":0.10767224032256353,"8":0.13252801508401515,"9":0.1048632056437432,"10":-0.0523044569001156,"11":-0.11144220320724953,"12":-0.047825385746932486,"13":-0.10451196395607508,"14":-0.05803339436405681,"15":-0.05789786003997259,"16":0.09025521228831614,"17":0.06258985799995427,"18":0.1042777057231878,"19":-0.06763331185683241,"20":0.27976926887248643,"21":0.02723849443913447,"22":0.011115694622856827,"23":0.14065212357271778,"24":-0.005917895592192593,"25":0.14935726717556586,"26":-0.0024347013605595545,"27":-0.1210779674372143,"28":0.1759374811724344,"29":-0.10931180014306138,"30":0.00392585486768645,"31":0.13532958843146722,"32":0.015632883994037557,"33":0.004432771864135006,"34":-0.10540627031457415,"35":-0.03881897040239281,"36":0.049779040319944894,"37":-0.06500948391298027,"38":-0.02428885059215671,"39":-0.03718512997816017,"40":0.01504969130001633,"41":0.05175049087765283,"42":0.4670297233182448,"43":0.38896025966210135,"44":-0.02882437771867352,"45":0.07959563061127757,"46":0.10671327356562227,"47":0.04947425870531119,"48":0.10452937555523836,"49":-0.3450644464559232,"50":0.12568174667113058,"51":0.11833923576452564,"52":-0.1162477167492013,"53":-0.0993395535609317,"54":-0.3028577700750347,"55":0.12515086644565582,"56":-0.07613378623621385,"57":-0.054352758473896444,"58":-0.17950462971934925,"59":-0.19245623370954512,"60":-0.035025264433709485,"61":-0.0563856482858198,"62":-0.12609483209886402,"63":-0.05807045277629153,"64":-0.1937847198454164,"65":0.13752086722414034,"66":-0.05861008833341497,"67":-0.08384741010909948,"68":0.03286452138969579,"69":-0.10668585072824924,"70":-0.016823871412884214,"71":-0.202022474188481,"72":-0.15646114933605393,"73":0.05428788602924483,"74":-0.05901893771399161,"75":-0.1362751336040905,"76":0.015528398584157492,"77":0.028996746680100858,"78":0.0668031800049245,"79":-0.11287061614333425,"80":-0.25994797636788664,"81":0.24811475955051035,"82":0.23723534039135535,"83":0.11996531685870232,"84":-0.16447914010114692,"85":0.16503879652702902,"86":0.2537367152514435,"87":-0.0018656017328653007,"88":-0.1242074547198977,"89":-0.020562320172734967,"90":0.32345217890599104,"91":0.2928760840189939,"92":0.0016715006928778534,"93":0.057849152741902936,"94":0.029844408202586,"95":0.047177636189879545,"96":0.12003325484652715,"97":-0.406277075410834,"98":-0.06195926775753656,"99":0.06354406648265364,"100":-0.329165517047016,"101":-0.09748648916199959,"102":-0.4366082253185229,"103":-0.1309997323342834,"104":0.017110578293097183,"105":-0.08535030361674519,"106":-0.33275536740158324,"107":0.013380901216376456,"108":-0.18735674046043824,"109":-0.17508002454103183,"110":-0.2508809917739978,"111":-0.13696279212340198,"112":0.002482331350225892,"113":0.05304787430765028,"114":-0.10678991095094324,"115":-0.10663864663807295,"116":-0.06892867668265451,"117":0.15101635931655952,"118":0.13228309472945063,"119":-0.26226492229528264,"120":-0.4553099975467432,"121":0.0014978155402960798,"122":-0.22761344741776177,"123":-0.13884372269210363,"124":-0.3372854878937822,"125":0.08339830984897074,"126":0.15098385826136929,"127":-0.21669304603148554,"128":-0.36167557723582644,"129":0.037514471836546937,"130":0.3962722431798771,"131":0.20304198155076503,"132":-0.19467271642947737,"133":0.2726490108184977,"134":0.27077708642413756,"135":-0.1325484718178051,"136":0.10758956997239696,"137":-0.32428079636404383,"138":0.208429615215561,"139":0.1788217130264209,"140":-0.20190649820744164,"141":0.02495234166470554,"142":0.1361720697805714,"143":0.0009380281227782625,"144":0.08609560034018773,"145":-0.24106082358663386,"146":-0.01782471070582873,"147":0.13320202258634256,"148":-0.22593278359461924,"149":-0.03582828920005645,"150":-0.25515561353424354,"151":-0.03760339403073496,"152":0.11119562731505603,"153":0.035240460187351795,"154":-0.052652855176501034,"155":-0.08169871864405275,"156":-0.2101618901090785,"157":0.1842516828211132,"158":0.03747891088560492,"159":-0.23063773609886684,"160":-0.04016069105492522,"161":-0.09494285973798558,"162":-0.1820701390729262,"163":-0.08059135924049231,"164":-0.14892116376891745,"165":-0.09483048881805212,"166":-0.007787859994850734,"167":-0.2758226784905054,"168":-0.42325092503251166,"169":-0.07574083903851768,"170":0.039751268335260256,"171":0.09212918933627377,"172":-0.3032921976099664,"173":0.11225101342816805,"174":0.2765844077996704,"175":0.05764753148342038,"176":-0.3385315600341157,"177":-0.07365999787747489,"178":0.3031571621958105,"179":0.18552346363185876,"180":-0.08533260987839932,"181":0.1334729324464673,"182":0.33630883510736936,"183":0.008289757530651932,"184":0.1523279005542717,"185":0.03809675271994927,"186":0.038334479736448275,"187":-0.061230766108245765,"188":-0.2008426252521179,"189":-0.02494253983964841,"190":-0.13158969560158892,"191":0.013871197435967675,"192":0.09632025258785594,"193":0.02462010859252795,"194":0.00992566289739648,"195":-0.04203556884265765,"196":-0.01648378082683532,"197":-0.01420097438954745,"198":0.03890179244862929,"199":-0.17457997519874852}},{"sx":5,"sy":5,"depth":8,"w":{"0":-0.05794830862431744,"1":-0.265904071926056,"2":-0.1767870005406994,"3":-0.2548314934960695,"4":-0.17718723578353898,"5":-0.139725060879784,"6":-0.010814083053384669,"7":-0.16267254984564644,"8":0.014143464888744739,"9":-0.14414921030348585,"10":-0.2330909087686304,"11":-0.07228036829367634,"12":-0.050221988206469635,"13":-0.026626151075991596,"14":0.043052858491458935,"15":0.05412581165301933,"16":-0.09290382655672884,"17":-0.04976200343399417,"18":-0.13141473303785692,"19":-0.14162891744036127,"20":-0.04805242945804125,"21":-0.12409472099912865,"22":0.18652692352888903,"23":0.18301276999559105,"24":-0.16137192283126703,"25":0.10887102299912953,"26":-0.0745908383267225,"27":-0.21587918151223714,"28":0.05059871353065086,"29":-0.2363874802805969,"30":0.018025950991606983,"31":0.2768254498841437,"32":-0.153119947628799,"33":0.16371098729594288,"34":-0.15320853110268073,"35":-0.31733663559806247,"36":0.06715375682980922,"37":-0.09675921344733322,"38":-0.027663235586839294,"39":0.12038149370566582,"40":0.21208067642288472,"41":-0.1724793635510606,"42":-0.24732521464949916,"43":0.3513534410619887,"44":0.04202878325887882,"45":0.05514157746692486,"46":0.07358381775418843,"47":-0.022485578668847903,"48":-0.058418911463211286,"49":-0.07028336688407757,"50":0.16788632774530332,"51":0.19635795794802088,"52":-0.009863483638208236,"53":-0.23026089850186296,"54":0.08277544085101654,"55":0.1153600698725414,"56":-0.13886162854597153,"57":-0.042336574207248734,"58":-0.029915520960435697,"59":-0.2770973003807667,"60":-0.04697694507419888,"61":-0.274737566383626,"62":-0.012750765290972263,"63":0.19678846908473763,"64":-0.19309883771061973,"65":0.1246559194662,"66":0.10920168429404929,"67":-0.2772833781729903,"68":0.2211362726719459,"69":-0.1407865556935086,"70":-0.06954659782560745,"71":0.11422785255206609,"72":0.16713290845327908,"73":-0.13041527639667702,"74":0.07984528685358198,"75":-0.03181074071267481,"76":0.2504954379100874,"77":0.17183929323529953,"78":-0.04227062150808095,"79":-0.19242530642352335,"80":0.21647706675619963,"81":-0.17291334201048292,"82":-0.005162985788261776,"83":0.07283135755632604,"84":-0.17751171477502348,"85":-0.1931138209644959,"86":0.1577745452878576,"87":0.12098561536112094,"88":0.08887973268001478,"89":-0.00452039102673826,"90":0.01765228740358723,"91":-0.17721751798986396,"92":0.2666371955784051,"93":-0.3076172558320569,"94":-0.26049220095214193,"95":0.04612245889332265,"96":0.14457392722202075,"97":0.06130269753652887,"98":-0.015905801778051523,"99":0.058052994695440195,"100":0.40230650229185505,"101":-0.10674131325615978,"102":-0.2621777310068033,"103":0.09445636875586848,"104":0.14928075916743253,"105":-0.227008945849424,"106":-0.06614913965344703,"107":0.09313391814196861,"108":0.1778109398510105,"109":0.04330295991501977,"110":-0.08838065063464469,"111":-0.1220809759345828,"112":0.12666933304142264,"113":-0.16386796764399492,"114":-0.03640755493682702,"115":0.24892614746098485,"116":0.08469026277807098,"117":0.3820183967964183,"118":0.09423974336046129,"119":-0.23835549963891653,"120":-0.12109813901713187,"121":-0.3223770294676465,"122":-0.08229809247403812,"123":-0.2688858515095315,"124":0.2230582358556339,"125":-0.3094311588903742,"126":-0.3739677256726507,"127":0.30655349615849814,"128":0.18663300080065695,"129":-0.4007021766048001,"130":-0.14321240611795316,"131":-0.0704927720940897,"132":0.2626316998467132,"133":0.014251979692844098,"134":-0.19916861936773975,"135":0.12291655679087253,"136":0.03563553877853153,"137":-0.44239708327066074,"138":0.05019699171616553,"139":0.23800781495156015,"140":0.08013575456191126,"141":0.0555096125867722,"142":0.009360693318530736,"143":-0.2740075282076503,"144":0.0560174159417845,"145":-0.12734900561739845,"146":0.20385991843509377,"147":0.06022135146190091,"148":-0.11065250330746317,"149":0.03608530061053411,"150":0.15080099279386858,"151":-0.07257957826764162,"152":-0.018622318456576817,"153":0.13455518411910866,"154":-0.1416412402328337,"155":-0.11504239126972057,"156":-0.17735375661104688,"157":-0.18765576240978665,"158":0.029239623269704914,"159":-0.01619010436194096,"160":0.05980659790717487,"161":-0.3791590467281436,"162":-0.12307137983850965,"163":-0.21359141307854898,"164":0.12026643601051269,"165":0.03831113005837339,"166":-0.30424522127341236,"167":0.1668930564318834,"168":0.041060232676703196,"169":-0.29257915434558185,"170":-0.1716575124553922,"171":0.14266469429110099,"172":0.16867184563349563,"173":0.09873172146058878,"174":-0.008086702756372606,"175":-0.1667927694295491,"176":-0.0441300677022547,"177":-0.20312883067801413,"178":-0.0516990956460163,"179":0.23684703430021775,"180":-0.11521173161075322,"181":0.09338966780507904,"182":-0.015350903220150642,"183":0.07554989443122781,"184":-0.12714960633449351,"185":-0.10112244095990212,"186":0.013618700193350479,"187":-0.009545107383613334,"188":-0.14565699580815006,"189":-0.1977219109923699,"190":-0.11700926964728878,"191":0.11608615067623142,"192":0.05124861418757854,"193":-0.10448970274699249,"194":-0.08341974187403851,"195":-0.09712219319506923,"196":-0.03595485894288546,"197":-0.29040013183740926,"198":-0.32791479962666475,"199":-0.018201518666754714}},{"sx":5,"sy":5,"depth":8,"w":{"0":-0.019803254172491326,"1":-0.04935196433132984,"2":0.1802731157755146,"3":0.00931881359359236,"4":0.07287477660812226,"5":0.155233627056342,"6":-0.03707491434481616,"7":-0.0008493280917804421,"8":0.11504692387395783,"9":-0.04937082540848037,"10":0.028390181410337077,"11":-0.06879557170707051,"12":-0.06289767721883856,"13":-0.10432043613493218,"14":-0.23625436370761171,"15":0.03980593404668974,"16":-0.009020679922913857,"17":0.09054116027121242,"18":-0.12695070584728538,"19":-0.1332721594156875,"20":-0.022604412960500118,"21":-0.05937583301452826,"22":0.010365873412954002,"23":-0.07590995490988509,"24":-0.11655293429992812,"25":-0.002560627411471868,"26":-0.1539207418209902,"27":-0.06477735633228246,"28":-0.16036308777151304,"29":0.07078592445041489,"30":0.04897080548591879,"31":-0.19744461574802813,"32":-0.05932594136643767,"33":0.044340928079654465,"34":0.40400257330016165,"35":0.1081694335781232,"36":-0.37222807137570063,"37":0.2717001849274683,"38":0.2538926218081226,"39":0.11259805062601513,"40":0.023539839381474834,"41":0.10424428284774978,"42":0.07691092251463892,"43":0.04234329847827345,"44":-0.1052549599751774,"45":-0.08724499099269113,"46":-0.0415779994294089,"47":0.1531031263050957,"48":-0.07221442454581156,"49":0.17844839569349052,"50":-0.13569557199443674,"51":-0.1969424328298969,"52":0.036593802042979205,"53":-0.1038424404132167,"54":-0.06359081811581484,"55":-0.004958461358803028,"56":-0.08390660690509784,"57":-0.014060821925836327,"58":-0.329665667651203,"59":-0.1704903172847768,"60":0.23028230624202115,"61":0.0770949912537015,"62":0.02697452922884137,"63":0.02460515856119702,"64":-0.1709138184101876,"65":-0.059353228752737186,"66":-0.3365964972634444,"67":-0.014269641556748399,"68":-0.05852982464412056,"69":0.16981510768325853,"70":0.1538239056696296,"71":-0.23946137371302306,"72":-0.2626344662627583,"73":0.003656638174506165,"74":-0.00033132606408121853,"75":-0.02510516302967045,"76":-0.5015279932349438,"77":0.041405082423493375,"78":0.14449690087961037,"79":0.3689836963588979,"80":-0.08377199499451597,"81":-0.10700302570618152,"82":-0.015477975435212416,"83":-0.05382915241387247,"84":-0.0015292484510355626,"85":-0.12285675532182795,"86":-0.024555918276030934,"87":0.05243123438110894,"88":-0.07378640948898778,"89":-0.19704425464852393,"90":-0.16047552031800313,"91":-0.08818797155183657,"92":0.0948073049460485,"93":0.054438987736744146,"94":-0.0869497678513535,"95":-0.08333335891870354,"96":0.008859584551298056,"97":-0.15222054137405336,"98":-0.3434245551345395,"99":-0.03576052874865074,"100":0.009713508103069798,"101":0.00378236921917164,"102":0.05902661543169188,"103":-0.26416320555686545,"104":0.10606138791103166,"105":-0.1729980775346987,"106":0.007027136085226093,"107":0.11016679441293419,"108":-0.17801123831372784,"109":-0.16102130516379662,"110":0.04962302745039681,"111":-0.047281274685051534,"112":-0.27937520928280585,"113":-0.13288919059126134,"114":0.06257309754724945,"115":-0.039281400621012444,"116":-0.11280943513890586,"117":-0.15565702442037302,"118":-0.05583189095897062,"119":0.32541385516144516,"120":-0.14390576879213993,"121":-0.2200598617595094,"122":-0.22066703865060794,"123":-0.0838988157374799,"124":0.05660639099556517,"125":-0.04017302885553393,"126":-0.09297004427450531,"127":-0.121243236178675,"128":0.08352649980107792,"129":-0.4476545732869744,"130":-0.2812850554946357,"131":-0.17161697780103424,"132":-0.009881435168158313,"133":0.03572582429995283,"134":-0.06594321226263429,"135":0.05598344709244494,"136":0.013889151100420107,"137":-0.08503958652743507,"138":-0.2903361070914036,"139":-0.143197369741166,"140":-0.07525586075433739,"141":-0.11902510663466719,"142":-0.1083964189755397,"143":-0.19768732023495542,"144":-0.12522653746163195,"145":0.1858974466772663,"146":-0.26267363533061866,"147":0.013670285098159688,"148":0.2818502576963816,"149":-0.05109511667407921,"150":0.08675169474847061,"151":0.06014313688992017,"152":-0.04703762680596436,"153":-0.15453319781176125,"154":0.2460337066230246,"155":0.20247977433954328,"156":0.3468844200667636,"157":0.04692480546796164,"158":-0.32195921319893317,"159":0.3649085242260834,"160":0.2534798421409945,"161":-0.34113457818395193,"162":-0.31766827780974394,"163":0.21214468058433597,"164":0.015957351308896688,"165":0.20098408609247026,"166":0.0814542047001433,"167":-0.23975096176810257,"168":0.15540074623593753,"169":-0.4650971067300795,"170":-0.19869520246034306,"171":0.05565772825708151,"172":-0.03461101209201054,"173":0.12467467711581051,"174":-0.011056435259151953,"175":-0.202863241218113,"176":0.11854410540137429,"177":-0.2679172246333138,"178":0.0630342221457722,"179":-0.011246311246111479,"180":0.18158422336088076,"181":-0.02473755601475507,"182":-0.11886341971242657,"183":0.05536061219955594,"184":0.05958322541207449,"185":-0.0678674809833168,"186":0.14380801613030292,"187":0.07509031125555486,"188":0.07603158769826329,"189":-0.23336655793725605,"190":-0.11394142313801323,"191":0.06517852702543893,"192":0.04411186164571372,"193":-0.13879035611575047,"194":0.2859812219488751,"195":-0.011255938596635706,"196":0.0013381845453531431,"197":-0.005235006395629998,"198":-0.2003475216518123,"199":0.02620472449487267}},{"sx":5,"sy":5,"depth":8,"w":{"0":0.0602288259939878,"1":-0.07754580129116735,"2":-0.16055534128913443,"3":-0.004432371706652579,"4":0.11178555807658477,"5":-0.07541308379997616,"6":0.09512580066088468,"7":0.058112648901381105,"8":-0.12841095477454545,"9":-0.10277400707413832,"10":-0.06358534768909842,"11":-0.1835858487360827,"12":-0.048080930474778065,"13":-0.28245133000645184,"14":-0.24509001894470245,"15":0.28791184202538417,"16":-0.25996890248533006,"17":-0.11199651910428973,"18":-0.18315977660312313,"19":-0.019950972390433936,"20":0.008803542565695075,"21":-0.22913609543910538,"22":-0.11930390908478532,"23":0.17807926732910023,"24":-0.13101176156093106,"25":-0.09919393786479734,"26":-0.1477219474321825,"27":-0.17537738598443864,"28":-0.03662517151211519,"29":-0.13533491883130364,"30":0.09656386731752994,"31":0.006193265151130098,"32":0.07380368219815983,"33":0.051454548220330076,"34":-0.12630511942417433,"35":0.02486606398875043,"36":-0.16277115946104867,"37":0.18454891439134757,"38":0.21338197592643665,"39":0.06475256870718385,"40":-0.3333530008764736,"41":-0.2748708748574105,"42":-0.37816392519938846,"43":-0.14973136267455847,"44":-0.07040610200092887,"45":-0.321138184521319,"46":-0.2178094165725382,"47":-0.03592157816149316,"48":-0.05310208785665226,"49":-0.15976011022195502,"50":-0.1980917290257704,"51":-0.15753937626276748,"52":0.11619667178135797,"53":-0.24689074882637943,"54":-0.3111375367043225,"55":0.2412300574634037,"56":-0.0704506100836718,"57":-0.014746514101172703,"58":-0.24251203114632275,"59":0.0013583124987200828,"60":0.06239017840715862,"61":-0.11152272242721069,"62":-0.2819438134080779,"63":-0.059554080911733316,"64":-0.12413607669168393,"65":0.05805992771348016,"66":-0.40130832276443035,"67":-0.14795513599024113,"68":-0.10730040852343187,"69":-0.2717968874595425,"70":-0.02990650101165178,"71":-0.16112637065064747,"72":-0.13305731380892652,"73":0.2166903265894122,"74":-0.1281824488412903,"75":-0.12681775144354016,"76":-0.20420143845050817,"77":0.04755078727808957,"78":0.17302515721127976,"79":-0.0755795817285034,"80":0.19974911834392262,"81":-0.20278598733267097,"82":-0.06356437786554522,"83":0.03328312457012377,"84":0.03411782511145192,"85":-0.05453627981797042,"86":-0.210463942767953,"87":-0.3047185996665643,"88":0.06035891803230563,"89":-0.2492461084957818,"90":0.12439209975981995,"91":0.03909694711689187,"92":0.14428097978603538,"93":-0.006530299523735307,"94":-0.2047407491354678,"95":0.020672641042630616,"96":0.15284992397136035,"97":-0.22201420289470003,"98":0.21495061138638313,"99":0.026825396988100835,"100":0.0444233399636537,"101":-0.09932413229306074,"102":-0.13456185841520338,"103":-0.2599765181206231,"104":0.10840973831490512,"105":-0.12689767800206855,"106":0.26944462505950945,"107":-0.06215938286053986,"108":-0.05985157986636802,"109":-0.3228913710410566,"110":-0.1832883191034066,"111":-0.15270855216854615,"112":-0.06051422187951297,"113":0.23886723067146953,"114":0.08837137310017493,"115":-0.05830057713441072,"116":-0.411359554250621,"117":-0.08490284871898979,"118":-0.1259039013671793,"119":-0.24951531005173397,"120":0.1297125641139335,"121":0.018330303621771998,"122":0.37131466790366685,"123":0.09918181028453553,"124":-0.05063714921778835,"125":-0.02197222844535209,"126":-0.17918971554830507,"127":-0.18859665945700177,"128":-0.11717239185960993,"129":0.17034519124536962,"130":0.09434057640187188,"131":0.01390122007492599,"132":-0.11631967693763182,"133":0.04410423807510975,"134":-0.007742439952655597,"135":-0.12163479065449025,"136":0.059362966507228096,"137":0.011864255755345655,"138":0.16916942660290127,"139":0.005247170355043268,"140":-0.19455639581524206,"141":0.132337533835892,"142":0.15625694259006828,"143":-0.0837633738124914,"144":-0.023799670169697664,"145":-0.12026656558160499,"146":0.2895898122079398,"147":0.17526273798171685,"148":-0.03461788652409544,"149":0.03753378275135959,"150":-0.024455296486280937,"151":0.0341681805491862,"152":0.020391213275135517,"153":-0.390723451405976,"154":0.13528737612630753,"155":0.005672349114588463,"156":-0.29030980320327177,"157":-0.06939997189983195,"158":-0.12929968572418557,"159":-0.04107716695278045,"160":-0.24440899173122096,"161":0.27793061976371924,"162":0.28731963668536176,"163":-0.22439824571357125,"164":0.12329992030459205,"165":-0.10620999723918781,"166":-0.05181347336609625,"167":-0.18063496268470328,"168":-0.2604308813851843,"169":0.30892415891402397,"170":0.21381029460632342,"171":0.039601946502819715,"172":-0.1260907477468848,"173":-0.00008511001706626225,"174":-0.011098461937893704,"175":-0.0014374347832472622,"176":-0.2098490300459363,"177":0.08364220373464444,"178":-0.049397631820911225,"179":-0.1718021509004496,"180":-0.10469494772821812,"181":-0.1355031714659346,"182":0.07524539766129933,"183":0.09677831764126046,"184":-0.1699063631505505,"185":-0.03313658504429397,"186":0.07202239406679825,"187":0.007191443821383875,"188":0.04668656385184207,"189":0.07800788252335512,"190":0.2382013160091456,"191":0.12788669457704405,"192":0.19991572443186784,"193":-0.014602223765154007,"194":0.06868431408229461,"195":-0.007687581101871016,"196":-0.31791792283146125,"197":0.05751621011276639,"198":0.19398556703281938,"199":-0.26651575191974575}},{"sx":5,"sy":5,"depth":8,"w":{"0":-0.0870742463308556,"1":0.2575344046057738,"2":0.2764367541801085,"3":-0.1032674532253257,"4":-0.1905918640066262,"5":0.12437550914783535,"6":-0.09792675136742295,"7":-0.1428349144210751,"8":0.11702269177364329,"9":-0.006074322590286486,"10":0.09468174068537012,"11":0.11143571858635283,"12":-0.05196888187988015,"13":0.16982421330687875,"14":0.04263283416500184,"15":-0.19719593133027635,"16":0.05171069035275709,"17":-0.10941681437721638,"18":-0.0005557526003765777,"19":0.11800758172586176,"20":-0.17810448404435633,"21":0.05657831552396454,"22":0.1765063078938591,"23":0.15680709385915964,"24":-0.09938438660631768,"25":-0.21927113454383187,"26":0.06728548273812171,"27":-0.22734513388015126,"28":0.00863066042409647,"29":-0.08420136094797066,"30":-0.1491019740464766,"31":0.25009389165313506,"32":0.061707279301076445,"33":0.036269375956367304,"34":-0.1117050926940549,"35":-0.13753271337687792,"36":0.04511188470746004,"37":-0.258728518488109,"38":-0.17712742313512597,"39":-0.00568143615547068,"40":-0.06769242720440015,"41":-0.17098975087963011,"42":-0.12563104449513285,"43":0.16140105702769167,"44":0.33890026738042284,"45":0.2889366799944162,"46":0.1512035021093538,"47":-0.26483901606039323,"48":-0.057397849599365926,"49":-0.28865990458398233,"50":-0.1171733671917924,"51":0.23073363158934107,"52":-0.06951259843568112,"53":0.17351307085652415,"54":0.1125713566165755,"55":0.027277610030963313,"56":-0.15545550614229905,"57":-0.0443753222007918,"58":-0.009699590065142484,"59":0.008161732497028203,"60":0.06319807901438688,"61":-0.10342658563678502,"62":0.06474323767644383,"63":0.33508988203575935,"64":0.0000029231004207594077,"65":-0.05170098446694604,"66":-0.15130697842563934,"67":-0.1432741450270939,"68":0.11625388212775294,"69":-0.28584824855398183,"70":-0.1224561924395714,"71":0.10548049990522387,"72":0.006516713956159573,"73":-0.03191380459608666,"74":-0.06532698014931852,"75":-0.15290729791030291,"76":-0.12723710858972306,"77":-0.05344953841361652,"78":-0.13736548635716037,"79":-0.004844930023290701,"80":-0.012198392591348752,"81":-0.2753459158478445,"82":-0.23363293075272512,"83":0.38700527047305755,"84":-0.07732851363966953,"85":0.19222471503572386,"86":0.15521201503675253,"87":-0.0945745810422619,"88":-0.3575203399220277,"89":0.05523312400357197,"90":-0.05006131146945899,"91":-0.2663347139825731,"92":0.23914791051050488,"93":-0.11694496735862729,"94":0.10173311153684184,"95":0.13392799475332187,"96":-0.04566481800701647,"97":0.20358115435731447,"98":-0.1452356915209737,"99":-0.26975840335404594,"100":0.20668849169963216,"101":-0.23342004270640862,"102":-0.046324092077810054,"103":0.2669175047305029,"104":0.0074103921371205875,"105":0.006469446399963231,"106":-0.14518575808358866,"107":-0.13505503232494148,"108":-0.00848709252423628,"109":-0.23432190935538857,"110":-0.44426380319812914,"111":0.2205602237251902,"112":0.3606402218130113,"113":-0.1407479680305504,"114":-0.06830499782270243,"115":-0.13516044085912154,"116":0.08403990344454891,"117":0.19017009781523436,"118":-0.003736150706809463,"119":-0.1474218688351344,"120":-0.36080317591630356,"121":0.14487905011085073,"122":-0.051210523337836836,"123":0.019182939538229225,"124":0.31941889421027164,"125":-0.20499503140716044,"126":-0.04133842220701511,"127":0.1270209029801488,"128":0.09472611047112048,"129":0.06797974534213144,"130":0.05148883104153931,"131":-0.29709782950499003,"132":0.23475250141712167,"133":-0.00026555048393306,"134":-0.2564642335153991,"135":0.16682441182831476,"136":0.005644013805600856,"137":-0.02315079274101124,"138":0.07652885353198828,"139":-0.12446410916122606,"140":0.07836367986240114,"141":0.0625911505046496,"142":-0.1346209819567317,"143":0.04119604706779321,"144":0.16108230043445046,"145":-0.1499173989854327,"146":-0.019440324299091417,"147":0.019882518133163326,"148":-0.08497803415876536,"149":0.1636111165401716,"150":-0.1190461694791738,"151":-0.13656082868738195,"152":0.08557140370740927,"153":-0.29062756960557856,"154":-0.06932037293902946,"155":0.23022704719170942,"156":-0.06583730450494842,"157":0.11102730814724215,"158":0.06461397498933483,"159":-0.21942017618684645,"160":-0.21486786014924925,"161":0.2006218399003547,"162":0.049701015050969743,"163":-0.12401228736015857,"164":0.19253978891319473,"165":0.1331387532118109,"166":0.032861008834933446,"167":0.0662626779428971,"168":0.012856129935753541,"169":-0.0019254777717015296,"170":0.025456938743199282,"171":-0.025814558670733945,"172":-0.08518519769856121,"173":0.21243680713167448,"174":-0.104235514134938,"175":-0.19900881385486888,"176":0.02991803014731001,"177":-0.15926616074576655,"178":-0.16268751898168277,"179":-0.024381573210777482,"180":-0.2545289754712962,"181":0.09416573023434027,"182":0.09206199819565486,"183":-0.09662461578855613,"184":0.12132422235940392,"185":-0.11957992231820404,"186":-0.04037207455637433,"187":0.20720102137040142,"188":-0.15273142391176173,"189":0.314510259862208,"190":0.17149399391739828,"191":-0.10422841966038315,"192":-0.05709226662798374,"193":-0.20277882912355516,"194":-0.271138506198416,"195":0.12807232307045577,"196":-0.16340004942868874,"197":0.06503837428615379,"198":0.12981446266400823,"199":-0.09173530861239719}},{"sx":5,"sy":5,"depth":8,"w":{"0":0.010700991867009717,"1":0.10877842426749973,"2":0.33345139122208334,"3":0.13316470439955913,"4":0.14290294708265594,"5":0.035911111759050575,"6":-0.007810778579207002,"7":-0.029928036499513117,"8":0.19305600235928985,"9":-0.03169437631613168,"10":0.5607425683049873,"11":0.0731753894459464,"12":0.0725933458611203,"13":-0.018501929122661395,"14":-0.07208388785815602,"15":0.037355000320639105,"16":0.04311523391001378,"17":-0.07214313358547275,"18":0.381254657565419,"19":0.035996174772946705,"20":-0.14204207554207465,"21":-0.13416214869875448,"22":-0.07395041195347682,"23":-0.22034079614775087,"24":0.02283244963888972,"25":-0.008091959979811443,"26":0.3414354072243614,"27":0.06502231849987553,"28":-0.3199949730911223,"29":-0.1773071197179006,"30":-0.25064108542447083,"31":-0.08215776865026386,"32":-0.12869648452856577,"33":-0.26397582038461515,"34":-0.09500475548533077,"35":-0.10702440633056229,"36":-0.04658915325422922,"37":-0.3507945738269126,"38":-0.5237577787202156,"39":0.013106662184616725,"40":-0.1275420314581601,"41":0.21314575965274282,"42":-0.32534169038115135,"43":0.27560941875286543,"44":-0.05720660097185513,"45":0.022278086005196363,"46":-0.0875024620441345,"47":-0.057491876533671014,"48":-0.5090565559491282,"49":0.2955870662060294,"50":-0.048726503340145985,"51":-0.11997073880810362,"52":0.13644360590402616,"53":-0.10021791119174876,"54":-0.1449206998756332,"55":-0.10493153603314491,"56":-0.34574146797965044,"57":0.22382990126111063,"58":-0.020204566174856282,"59":-0.03121003310195786,"60":0.30726089888891184,"61":-0.00902689319288519,"62":-0.0062708864493323715,"63":0.02946073635491094,"64":0.12596719338584705,"65":-0.13235287115554123,"66":-0.01729649521905784,"67":0.28468579339692995,"68":0.14511398505649725,"69":0.041482855073287306,"70":-0.03662616232880307,"71":0.06860618043220658,"72":0.25182064987766023,"73":-0.3756758301411046,"74":0.11982880731856951,"75":0.08190003681647753,"76":0.1768640138582265,"77":0.16522761243208733,"78":-0.15243180445816865,"79":-0.1801506580255562,"80":-0.0855097769164464,"81":-0.04391824069381503,"82":0.24602753417534895,"83":-0.09589576471472053,"84":-0.106330521762779,"85":-0.19514353965867764,"86":-0.0015430407713895849,"87":-0.11646498973106491,"88":0.03701531216436983,"89":-0.1424136495952017,"90":-0.11444486234870596,"91":-0.10855043478882512,"92":0.13754104375451257,"93":-0.09121983266861768,"94":-0.07141810970911706,"95":-0.13814797622081756,"96":-0.05038459081668999,"97":-0.2354281947056354,"98":-0.1559156400486079,"99":0.04485479737311963,"100":0.16453160113799886,"101":0.062483133468649504,"102":0.017785193183590932,"103":-0.0603341183696012,"104":-0.1795582107872886,"105":-0.1272143792136855,"106":0.10411208882391083,"107":-0.03668260205085658,"108":0.00008700005821667074,"109":0.038286895018211406,"110":-0.13514395323944375,"111":-0.02666797282450863,"112":-0.09264400803806626,"113":-0.018729020614181687,"114":0.2651269567232863,"115":-0.04665053390336656,"116":-0.20106835655673258,"117":-0.08305453111206776,"118":-0.11460429919584195,"119":-0.19641473827115385,"120":-0.059325603170687254,"121":-0.030084991366867573,"122":0.3676911853867577,"123":0.0831071540547848,"124":0.05757704937012848,"125":0.09047623723604611,"126":-0.0002178372451996765,"127":-0.04387974525626863,"128":0.0503721123689143,"129":-0.047756049723091,"130":-0.072305372045099,"131":0.005791655411723233,"132":0.01635756014023228,"133":0.0025640382695911895,"134":-0.13467322765084372,"135":-0.09951599116371714,"136":0.02116810956972442,"137":-0.044271001132897614,"138":-0.2596396406243627,"139":-0.030339631391048155,"140":0.26833600529006335,"141":-0.12569142487195348,"142":-0.04654540926645365,"143":0.11595595957548915,"144":-0.13412551429995703,"145":0.014892209227923232,"146":-0.23304375731142504,"147":0.17438180445361043,"148":0.3893293439888823,"149":-0.07329082084211216,"150":-0.0018953382635726271,"151":0.12905530316227248,"152":-0.17438822671213863,"153":0.10298979481635892,"154":-0.2314285032195617,"155":-0.24349612903669585,"156":0.10717076845078496,"157":-0.10502121240329507,"158":-0.09614177318639355,"159":0.04452553267393248,"160":-0.04910524119158011,"161":-0.224269970637283,"162":-0.032482501875982575,"163":-0.07622565108780331,"164":-0.3394875590127962,"165":0.17957037424041736,"166":0.10669828925330418,"167":-0.20140220091378766,"168":-0.1128981646107091,"169":-0.15971754592400172,"170":-0.03288936902962454,"171":0.08243986743023203,"172":-0.2655482237600809,"173":0.1302822094739673,"174":-0.0011418695580917523,"175":-0.0862722734377725,"176":0.08711846379891859,"177":-0.1671972159646248,"178":-0.08316993995523876,"179":-0.07790455803503239,"180":0.008293732364391215,"181":-0.024773890873136528,"182":0.07577781368853437,"183":0.12009148843696008,"184":-0.055419723242530854,"185":-0.002299323116806343,"186":-0.05982178048201778,"187":0.03850739947551335,"188":0.17729751524540688,"189":-0.0592146167817868,"190":0.06258222364073208,"191":-0.11455885622885512,"192":0.05928724941776246,"193":-0.10911817396377164,"194":-0.018847335450592244,"195":-0.0494513063353591,"196":0.03570968015454441,"197":0.016701925489955843,"198":-0.054536158381643045,"199":0.04665917910052766}},{"sx":5,"sy":5,"depth":8,"w":{"0":-0.0467171461284319,"1":0.1002549494254025,"2":-0.05767135817301707,"3":-0.003739518249186101,"4":-0.050807731815314235,"5":-0.10330889174379926,"6":-0.22169523359683838,"7":0.05076953156370061,"8":-0.27908820384956956,"9":0.044987860976523616,"10":-0.1377448151447146,"11":-0.28553348665890216,"12":-0.16628407657753283,"13":-0.13394739572740622,"14":-0.15605972619788805,"15":-0.23302268958627123,"16":-0.2786894634200074,"17":0.15709431327277185,"18":0.029994317590036807,"19":-0.2531043961768101,"20":-0.3230412359279709,"21":-0.09691017271210606,"22":0.15427779841536624,"23":-0.21864416794457922,"24":-0.09748028139358318,"25":0.42309582930099765,"26":0.026750479200798837,"27":-0.05636017845899006,"28":0.06369710474490513,"29":-0.1450817581557956,"30":0.2564739766630289,"31":-0.08788394624385071,"32":-0.2671519033084654,"33":0.2615853874491614,"34":-0.4234306535580493,"35":-0.23108530975233704,"36":0.35928450221957364,"37":-0.14279032509568937,"38":0.09233663522318031,"39":0.18117723810988323,"40":0.042095131815891786,"41":-0.17082592440295688,"42":0.2513877265435156,"43":-0.17985484682115827,"44":0.021213847699281696,"45":-0.10849898518517874,"46":-0.15575957140961225,"47":0.06502320918902171,"48":-0.10707483038071404,"49":-0.026999345708866293,"50":0.10554144903810189,"51":-0.009217111880028108,"52":0.03247464548273808,"53":-0.1319139938174348,"54":-0.3603615301196772,"55":-0.1718433715072211,"56":0.1506934465870344,"57":0.05789218313637276,"58":0.13501863353519494,"59":-0.1432562522404761,"60":0.0005873633645530269,"61":-0.26080939633427697,"62":-0.15549081782298377,"63":-0.2849728840576999,"64":0.019232341985464894,"65":0.2791057482704408,"66":-0.14922291804814644,"67":-0.1277433911580753,"68":0.0827972177966444,"69":-0.1794405118012341,"70":0.07576663982901315,"71":-0.3879508230332148,"72":-0.027242927903988166,"73":-0.013733881344244534,"74":-0.22209470929433617,"75":-0.061175846135948425,"76":0.33905144408736076,"77":-0.042689649451832457,"78":-0.12363404584862399,"79":0.008013766797353175,"80":-0.05710623477137709,"81":-0.15457693427657232,"82":-0.1404198995975706,"83":-0.15064710316324723,"84":-0.17405079484288272,"85":-0.2576557930784238,"86":-0.12873574034103566,"87":-0.06833593970671618,"88":0.1072580858401969,"89":-0.24967175665450236,"90":0.025108162347973726,"91":-0.05675589542468152,"92":0.22728416472324167,"93":-0.04763139021615743,"94":0.05923282466510885,"95":-0.14823845521345394,"96":0.1686493491396882,"97":-0.3824998828660678,"98":0.003591425777660143,"99":0.25151074297969095,"100":0.20761267574559084,"101":-0.0774634879536447,"102":-0.10102291452035088,"103":-0.3338488921220291,"104":0.20394961452305438,"105":-0.3061131201585949,"106":0.07960004919885967,"107":0.23004641925052058,"108":-0.08338496315252669,"109":-0.1360642409310535,"110":-0.28594828184251886,"111":-0.4661430961392678,"112":-0.008597101678606946,"113":-0.25076866190170327,"114":0.1903063967513768,"115":-0.2040170421632819,"116":-0.14335355029111885,"117":-0.23786902739323051,"118":-0.27817808396549476,"119":-0.13709609081974086,"120":-0.14867385236093436,"121":-0.1942167936603319,"122":-0.22151065881519136,"123":-0.25701196736996973,"124":0.013651188058694877,"125":-0.17788529818205778,"126":-0.2849711473218953,"127":0.03312865879906077,"128":-0.028207525344341604,"129":-0.08889064484752576,"130":-0.10628583128576527,"131":-0.13531763818001263,"132":0.06103075072035915,"133":0.059795752912358675,"134":0.08951268381764181,"135":0.00818934689116995,"136":-0.0725945629705329,"137":-0.13516986513769583,"138":0.1491433791111253,"139":0.14117563098984956,"140":-0.13202883184357786,"141":0.05733088644459783,"142":-0.06939912342285257,"143":0.016278797993032307,"144":-0.04082009623748472,"145":0.13903749955564654,"146":0.25809384924131534,"147":0.17518033413693512,"148":-0.08044768978752453,"149":-0.06968621399165774,"150":-0.027373133343325015,"151":0.19791759438209205,"152":-0.06999425717944438,"153":-0.009867745242814039,"154":0.13703174312308072,"155":0.054518378964802224,"156":0.031064719177172205,"157":-0.048349146193659695,"158":0.00552851213286808,"159":0.2034899892303425,"160":-0.11333587674139822,"161":-0.2267722308281148,"162":-0.001543375829709807,"163":-0.2729889859941895,"164":0.049374458519819815,"165":-0.10603130151463647,"166":-0.23932898116825824,"167":0.09986328404339256,"168":0.1347003192612463,"169":-0.25587101471746354,"170":-0.13883077884932002,"171":0.04065486115626679,"172":-0.0540840076555599,"173":-0.07619614224077308,"174":0.08688411380274412,"175":-0.10602747748415584,"176":-0.2739589864006227,"177":0.025961093405558373,"178":0.117495906479956,"179":0.04842925079123546,"180":-0.29072084092812267,"181":0.00830620746088135,"182":0.09625413333498159,"183":0.01974178350383171,"184":0.12278497793528283,"185":-0.017135122134958262,"186":-0.054530781028555304,"187":-0.08944345382294039,"188":0.12493773331832635,"189":-0.0643246051096024,"190":-0.04314918985876657,"191":0.4466733771451045,"192":0.17431877972539722,"193":-0.0825339020786868,"194":-0.12126269384488997,"195":-0.10841008232631145,"196":-0.25727188343690216,"197":-0.19630125401413656,"198":0.031200331808302274,"199":-0.03172677072505232}}],"biases":{"sx":1,"sy":1,"depth":16,"w":{"0":0.04590425275536634,"1":-0.10224257329249628,"2":0.04761769264195688,"3":0.06321516423930175,"4":0.09252107156742119,"5":0.03927999298830619,"6":0.01675484667177556,"7":0.04372017360251482,"8":0.03174345376535315,"9":0.05953258854754449,"10":0.061643444268047576,"11":-0.17257338959796034,"12":0.033315631942102374,"13":-0.07608393209770682,"14":0.043190487872372785,"15":0.006873338058471885}}},{"out_depth":16,"out_sx":12,"out_sy":12,"layer_type":"relu"},{"sx":3,"sy":3,"stride":3,"in_depth":16,"out_depth":16,"out_sx":4,"out_sy":4,"layer_type":"pool","pad":0},{"out_depth":10,"out_sx":1,"out_sy":1,"layer_type":"fc","num_inputs":256,"l1_decay_mul":0,"l2_decay_mul":1,"filters":[{"sx":1,"sy":1,"depth":256,"w":{"0":-0.10420981751525756,"1":-0.05067770319440619,"2":-0.2088984447608458,"3":-0.0832905522860662,"4":-0.08737914316987523,"5":-0.12142155964559247,"6":0.14855482904239445,"7":-0.2177309367862551,"8":-0.08067890345226286,"9":-0.06908987150555802,"10":-0.08705520557749999,"11":-0.06497920016717108,"12":-0.08720750210187127,"13":-0.014230513673753909,"14":-0.18826109370277938,"15":0.04257040291226172,"16":-0.18600977756410841,"17":-0.038524684115140935,"18":-0.1855810083535256,"19":-0.009071025596855116,"20":-0.27589248999474797,"21":-0.18725608788288278,"22":-0.033458953937903956,"23":-0.23739032050389708,"24":-0.3283739805444358,"25":-0.10313113018663692,"26":-0.15413328880129598,"27":0.02797944373504925,"28":-0.042379082746379956,"29":0.039611239972711994,"30":-0.24051940625804083,"31":-0.09830082321307328,"32":-0.11415476708982533,"33":0.06490630133509874,"34":0.02242461589711008,"35":-0.11901206738191282,"36":-0.1493753093557433,"37":0.014886525006247165,"38":-0.18471127962184836,"39":-0.050843731707749154,"40":-0.22527238239008088,"41":0.021567291291391344,"42":-0.027526891241100006,"43":0.0027999123483481003,"44":-0.12416067514976488,"45":-0.08291439456911288,"46":-0.079453714121257,"47":-0.03935756228436065,"48":-0.0766972631490387,"49":0.09909707400689459,"50":0.11042919111981256,"51":-0.2395010410664549,"52":-0.1812954540131909,"53":-0.1447820755278646,"54":0.03611019331259971,"55":-0.006461966288702903,"56":-0.05767829386462624,"57":0.12482443630651037,"58":-0.12953777317415177,"59":-0.09932421255731363,"60":-0.11393768047658624,"61":-0.20639953820266288,"62":-0.15312220373457577,"63":-0.13154610577105144,"64":-0.2758403113308239,"65":0.10969164406727983,"66":-0.15041648080062262,"67":-0.6708479937572428,"68":-0.06353002988318524,"69":-0.011905672837355627,"70":-0.020728053833244074,"71":0.0024923499385217586,"72":-0.1027269385320027,"73":-0.09383330701044447,"74":-0.02590287977533287,"75":-0.05762041065015335,"76":-0.13154517789659903,"77":0.054633135370076885,"78":0.07596293573799091,"79":-0.08259733536779702,"80":0.16880101735966027,"81":-0.012779714609818521,"82":-0.09458072328941415,"83":-0.12287796797605359,"84":0.010372256987836292,"85":-0.10360768457683216,"86":-0.0017622780039616374,"87":0.10938925745539954,"88":0.17117739577606209,"89":-0.13541216478919485,"90":0.06360513171834499,"91":0.09083261755164376,"92":-0.03399845597789333,"93":-0.02581637445528568,"94":-0.008865267278501864,"95":-0.1806830954686801,"96":0.0889137433516978,"97":-0.12460002088583805,"98":-0.09300724391590512,"99":0.04104650800982515,"100":0.1182440818857551,"101":0.003841424006578673,"102":0.020458246133840376,"103":-0.31382339639783263,"104":0.002017042881344361,"105":0.06130868798753341,"106":-0.01537062313693581,"107":-0.15956498548969275,"108":-0.024373409573613645,"109":-0.25674587061350185,"110":-0.1520255519338035,"111":-0.21301314680234967,"112":-0.010312513610021622,"113":-0.0036503199928962756,"114":-0.13691133984307122,"115":-0.29689991049937714,"116":-0.028072823719570813,"117":0.046631752605776206,"118":-0.23149488923950623,"119":-0.1418724681045366,"120":-0.0028178229690062452,"121":0.1462542437092562,"122":-0.3153195934413435,"123":-0.0065610483103917035,"124":-0.2494436302526028,"125":-0.33488038884472293,"126":0.011180422592653063,"127":0.03173585710016545,"128":-0.232547385306653,"129":-0.028614672199555945,"130":-0.1888971576616446,"131":-0.5009365433838843,"132":-0.056228596013153484,"133":0.0307766552875285,"134":-0.013225764912154027,"135":0.06229178896456352,"136":0.13526527589169224,"137":0.02690850108679961,"138":-0.06663699862366808,"139":-0.06707541922434798,"140":-0.30827922075865466,"141":0.04269967670152767,"142":0.05376957727663949,"143":-0.4226037018401767,"144":-0.18752860932396198,"145":-0.13575202289075497,"146":-0.11941142390234476,"147":-0.11542879646801042,"148":0.03784152455304421,"149":0.053230809007487404,"150":0.023911551160946055,"151":0.24001441505702734,"152":0.22472538211830542,"153":-0.004207149618920656,"154":0.10237722995735192,"155":-0.14524417165572132,"156":-0.15194479663934496,"157":0.11416464954834668,"158":-0.08328651140521968,"159":-0.27631722096961353,"160":-0.129802481585475,"161":-0.3324225239037593,"162":-0.05238195341691093,"163":0.1518817431869706,"164":-0.07029708093707335,"165":0.17654994880232908,"166":-0.01920142256188614,"167":-0.20032227201117658,"168":-0.28973100736539753,"169":-0.007721119045881279,"170":-0.04860606341892305,"171":0.21757280725581324,"172":-0.038772468901480416,"173":-0.0026729401150078756,"174":-0.31957074921551204,"175":-0.19421959966604502,"176":0.14909027114247603,"177":0.04657510197359174,"178":-0.2666598527962726,"179":-0.08858600070233402,"180":-0.14183224643648734,"181":0.1269258052570427,"182":0.02854741030237822,"183":-0.06998183516049436,"184":-0.0862404886244166,"185":-0.18708973299310794,"186":-0.09922236359970966,"187":0.1566172012384428,"188":-0.392287258882427,"189":0.07981816071061472,"190":0.01538980650280964,"191":-0.06388167358279909,"192":-0.024195987696491093,"193":-0.02845796434884249,"194":-0.1425951486532301,"195":0.10149291416169681,"196":0.04115047799348297,"197":-0.027563851231827235,"198":-0.009455896017681969,"199":0.11073500684794917,"200":0.0210506027008788,"201":0.06146214331142007,"202":-0.37143208220984697,"203":0.05144558716958583,"204":-0.005913529759967837,"205":-0.03340320772647872,"206":0.055836765272261744,"207":-0.09098356002877304,"208":0.20333122427533637,"209":0.06702918261014242,"210":0.022425062132257072,"211":-0.10008643061328186,"212":-0.13816518482265103,"213":-0.11735806709946706,"214":0.07041163234329138,"215":-0.09911306417994242,"216":-0.2085687242386879,"217":-0.023284015192571072,"218":-0.11501965057666745,"219":-0.17578875565254418,"220":0.0420073244202094,"221":-0.20039304285669068,"222":0.04407253282929828,"223":-0.04126174848936631,"224":-0.08107234912397036,"225":-0.17159476560552528,"226":0.06776400892661326,"227":-0.10443226715572916,"228":-0.3889038279366551,"229":-0.16815676929828488,"230":-0.04539134902583628,"231":0.01671745886897459,"232":-0.4260205446306107,"233":-0.1690715264168682,"234":-0.03036115497954708,"235":-0.30111002679101095,"236":0.17282072385697023,"237":-0.02861083042665143,"238":-0.09965211186779192,"239":0.054734441923977535,"240":-0.2072091708056873,"241":-0.1209622970953118,"242":0.005397379729778603,"243":0.013119189889091748,"244":-0.24434173847848853,"245":-0.1632295633568058,"246":0.1254695604226576,"247":0.1510413861851831,"248":-0.11754635848004415,"249":-0.4602573087075598,"250":0.06426757531444051,"251":-0.16850545042424145,"252":-0.10670830947705565,"253":0.0072354829260290925,"254":0.015847271266576944,"255":-0.0015096954786834032}},{"sx":1,"sy":1,"depth":256,"w":{"0":0.09672191576648492,"1":-0.03526301026526178,"2":-0.04326016634565707,"3":0.005746882047654642,"4":-0.07966081171209073,"5":-0.08334053376253586,"6":0.062131167143250544,"7":-0.03845019946647367,"8":-0.16454363644583844,"9":-0.09998215673968149,"10":-0.026215474363933528,"11":-0.09486242168743281,"12":-0.05361717474940656,"13":-0.20278506175617497,"14":0.015033290611287825,"15":-0.16106703964437594,"16":-0.22137846176204842,"17":-0.2231937438330452,"18":-0.23732719710471806,"19":-0.17471626034572643,"20":0.17693496547046778,"21":-0.07339276491662096,"22":-0.21530082479055537,"23":0.2102192157897358,"24":0.05902654846781802,"25":0.09473740049029561,"26":0.11783179765649161,"27":-0.2799368789092885,"28":0.017168373152379745,"29":0.02400031231923333,"30":-0.08905948696949843,"31":-0.0010974525298496816,"32":-0.041668731237277344,"33":0.11196041548040019,"34":-0.13556931235931763,"35":-0.03538986524287313,"36":0.016365438473868964,"37":0.09241177254664494,"38":-0.19295867815718118,"39":-0.02311745078439042,"40":0.08632380674043987,"41":0.005837951356291645,"42":0.061973186594168485,"43":-0.003165489128896931,"44":-0.29640387315301037,"45":0.3077682152859784,"46":-0.04047403139528305,"47":0.05418492276976636,"48":0.07752256382240372,"49":-0.1327238544195809,"50":-0.04727230726404367,"51":-0.010929738590130248,"52":0.12189000844542412,"53":0.25545692611549414,"54":-0.17138592050643925,"55":0.08196825434387411,"56":-0.05876946360017572,"57":-0.10658299131255632,"58":0.017460867924411105,"59":0.10786429751083397,"60":-0.31489119219043704,"61":0.02510251794096761,"62":-0.004264818780376808,"63":0.10466318026460801,"64":-0.22629534803514478,"65":-0.3386662672448817,"66":-0.137720156713682,"67":0.005856315672743619,"68":-0.35501703210698843,"69":-0.4088453220608783,"70":0.05783065053356494,"71":-0.16252963925621922,"72":-0.07066999396501877,"73":-0.01575626342063548,"74":-0.07993472400032817,"75":-0.19805989594066103,"76":0.02690165528174394,"77":-0.24736998447435904,"78":0.10679732904080726,"79":-0.02262561757933874,"80":-0.3330368952954015,"81":-0.18498233475459325,"82":-0.2665415427023923,"83":-0.09425164522263214,"84":-0.054502663568764625,"85":-0.13075889730312829,"86":-0.06027448651585096,"87":0.09227674074649914,"88":-0.1195539222901362,"89":-0.1846884850328545,"90":-0.07515484272382766,"91":-0.1512939562780258,"92":-0.09491562653831635,"93":-0.11772002238764893,"94":-0.15488561449073773,"95":-0.2579692944344302,"96":-0.12289731057408501,"97":0.14212459571170608,"98":-0.11497143528354557,"99":-0.10544886588465792,"100":0.12430232464011848,"101":0.04145288126948458,"102":0.10216730473010266,"103":-0.016957194152980786,"104":0.3559114713786633,"105":0.1756756705388109,"106":-0.032973400336891216,"107":0.12686022539125802,"108":-0.18197137084256285,"109":-0.09423723572195389,